{"learner":{"attributes":{"best_iteration":"407","best_score":"0.7656046194367798"},"feature_names":["review_count","average_stars","fans","useful","funny","cool","friends_count","elite_years","member_years","useful_sum","funny_sum","cool_sum","stars_mean","avg_len","rating_std"],"feature_types":["float","float","float","float","float","float","float","float","float","int","int","int","float","float","float"],"gradient_booster":{"model":{"gbtree_model_param":{"num_parallel_tree":"1","num_trees":"458"},"iteration_indptr":[0,1,2,3,4,5,6,7,8,9,10,11,12,13,14,15,16,17,18,19,20,21,22,23,24,25,26,27,28,29,30,31,32,33,34,35,36,37,38,39,40,41,42,43,44,45,46,47,48,49,50,51,52,53,54,55,56,57,58,59,60,61,62,63,64,65,66,67,68,69,70,71,72,73,74,75,76,77,78,79,80,81,82,83,84,85,86,87,88,89,90,91,92,93,94,95,96,97,98,99,100,101,102,103,104,105,106,107,108,109,110,111,112,113,114,115,116,117,118,119,120,121,122,123,124,125,126,127,128,129,130,131,132,133,134,135,136,137,138,139,140,141,142,143,144,145,146,147,148,149,150,151,152,153,154,155,156,157,158,159,160,161,162,163,164,165,166,167,168,169,170,171,172,173,174,175,176,177,178,179,180,181,182,183,184,185,186,187,188,189,190,191,192,193,194,195,196,197,198,199,200,201,202,203,204,205,206,207,208,209,210,211,212,213,214,215,216,217,218,219,220,221,222,223,224,225,226,227,228,229,230,231,232,233,234,235,236,237,238,239,240,241,242,243,244,245,246,247,248,249,250,251,252,253,254,255,256,257,258,259,260,261,262,263,264,265,266,267,268,269,270,271,272,273,274,275,276,277,278,279,280,281,282,283,284,285,286,287,288,289,290,291,292,293,294,295,296,297,298,299,300,301,302,303,304,305,306,307,308,309,310,311,312,313,314,315,316,317,318,319,320,321,322,323,324,325,326,327,328,329,330,331,332,333,334,335,336,337,338,339,340,341,342,343,344,345,346,347,348,349,350,351,352,353,354,355,356,357,358,359,360,361,362,363,364,365,366,367,368,369,370,371,372,373,374,375,376,377,378,379,380,381,382,383,384,385,386,387,388,389,390,391,392,393,394,395,396,397,398,399,400,401,402,403,404,405,406,407,408,409,410,411,412,413,414,415,416,417,418,419,420,421,422,423,424,425,426,427,428,429,430,431,432,433,434,435,436,437,438,439,440,441,442,443,444,445,446,447,448,449,450,451,452,453,454,455,456,457,458],"tree_info":[0,0,0,0,0,0,0,0,0,0,0,0,0,0,0,0,0,0,0,0,0,0,0,0,0,0,0,0,0,0,0,0,0,0,0,0,0,0,0,0,0,0,0,0,0,0,0,0,0,0,0,0,0,0,0,0,0,0,0,0,0,0,0,0,0,0,0,0,0,0,0,0,0,0,0,0,0,0,0,0,0,0,0,0,0,0,0,0,0,0,0,0,0,0,0,0,0,0,0,0,0,0,0,0,0,0,0,0,0,0,0,0,0,0,0,0,0,0,0,0,0,0,0,0,0,0,0,0,0,0,0,0,0,0,0,0,0,0,0,0,0,0,0,0,0,0,0,0,0,0,0,0,0,0,0,0,0,0,0,0,0,0,0,0,0,0,0,0,0,0,0,0,0,0,0,0,0,0,0,0,0,0,0,0,0,0,0,0,0,0,0,0,0,0,0,0,0,0,0,0,0,0,0,0,0,0,0,0,0,0,0,0,0,0,0,0,0,0,0,0,0,0,0,0,0,0,0,0,0,0,0,0,0,0,0,0,0,0,0,0,0,0,0,0,0,0,0,0,0,0,0,0,0,0,0,0,0,0,0,0,0,0,0,0,0,0,0,0,0,0,0,0,0,0,0,0,0,0,0,0,0,0,0,0,0,0,0,0,0,0,0,0,0,0,0,0,0,0,0,0,0,0,0,0,0,0,0,0,0,0,0,0,0,0,0,0,0,0,0,0,0,0,0,0,0,0,0,0,0,0,0,0,0,0,0,0,0,0,0,0,0,0,0,0,0,0,0,0,0,0,0,0,0,0,0,0,0,0,0,0,0,0,0,0,0,0,0,0,0,0,0,0,0,0,0,0,0,0,0,0,0,0,0,0,0,0,0,0,0,0,0,0,0,0,0,0,0,0,0,0,0,0,0,0,0,0,0,0,0,0,0,0,0,0,0,0,0,0,0,0,0,0,0,0,0,0,0,0,0,0,0,0,0,0,0,0,0,0,0,0,0,0,0,0,0,0,0,0,0,0,0,0,0,0,0,0,0,0],"trees":[{"base_weights":[3.8934595E-4,-1.2836461E0,2.7217692E-1,-1.5891813E-1,-8.4066635E-1,4.3084267E-1,-6.6205233E-1,-2.4102579E-1,-1.0988519E0,1.7508803E-1,6.547626E-1,-1.7045073E-1,-7.8469616E-1,-6.2201643E-1,2.1829836E-2,-1.4871259E0,-8.777147E-1,5.8671284E-1,-5.317787E-2,9.8642576E-1,5.4045194E-1,-5.1179963E-1,2.107311E-1,-9.622773E-1,-3.8691273E-1,-5.08655E-1,-7.271339E-1,-1.5742494E-2,4.3166816E-1,-1.3664113E0,-1.6130396E0,-6.6172934E-1,-1.1469495E0,7.4129796E-1,3.9181972E-1,-3.164849E-1,1.0391536E-1,8.888469E-1,1.3492031E0,4.1475323E-1,7.2771776E-1,-1.8610737E-1,-6.6540277E-1,-1.8441921E-1,3.467163E-1,-8.299498E-1,-1.2662039E0,-2.2389312E-1,-8.4717757E-1,-4.549929E-2,-1.1587196E-3,-7.1067095E-2,-5.6589827E-2,-2.1272874E-3,1.7360054E-2,4.827997E-2,-1.8602995E-2,-1.1012129E-1,-6.953179E-2,-1.3217592E-1,-1.1360626E-1,-4.8712056E-2,-6.903471E-2,-8.386719E-2,-1.1878607E-1,5.5044413E-2,9.3817934E-2,1.3428348E-2,4.642559E-2,-1.0617252E-2,-3.4107566E-2,2.6476612E-2,1.0699441E-3,8.730102E-2,6.122174E-2,1.2706912E-1,9.982691E-2,3.6510635E-2,6.7935726E-3,5.220805E-2,7.236208E-2,1.7278694E-2,-2.158109E-2,-8.2100056E-2,-4.2304095E-2,1.9074682E-2,-3.5379708E-2,4.1297596E-2,7.371106E-3,-9.2919074E-2,-5.5476937E-2,-5.6039896E-2,-1.0663888E-1,-3.0417157E-2,1.0796007E-2,-2.6276099E-2,-8.043456E-2],"categories":[],"categories_nodes":[],"categories_segments":[],"categories_sizes":[],"default_left":[0,0,0,0,0,0,0,0,0,0,0,0,0,0,0,0,0,0,0,0,0,0,0,0,0,0,0,0,0,0,0,0,0,0,0,0,0,0,0,0,0,0,0,0,0,0,0,0,0,0,0,0,0,0,0,0,0,0,0,0,0,0,0,0,0,0,0,0,0,0,0,0,0,0,0,0,0,0,0,0,0,0,0,0,0,0,0,0,0,0,0,0,0,0,0,0,0],"id":0,"left_children":[1,3,5,-1,7,9,11,13,15,17,19,21,23,25,27,29,31,33,35,37,39,41,43,45,47,49,51,53,55,57,59,61,63,65,67,69,71,73,75,77,79,81,83,85,87,89,91,93,95,-1,-1,-1,-1,-1,-1,-1,-1,-1,-1,-1,-1,-1,-1,-1,-1,-1,-1,-1,-1,-1,-1,-1,-1,-1,-1,-1,-1,-1,-1,-1,-1,-1,-1,-1,-1,-1,-1,-1,-1,-1,-1,-1,-1,-1,-1,-1,-1],"loss_changes":[3.383369E4,5.2711973E3,1.1860602E4,0E0,1.6083247E3,3.9168965E3,7.002534E2,3.1331668E2,6.222832E2,3.0002E3,1.3820615E3,3.0207013E2,6.5634814E2,1.4850372E1,2.8528307E1,3.7831055E1,2.6846216E2,3.428767E2,8.496791E2,3.2964844E2,6.3814307E2,6.1140656E1,5.9015965E1,2.5742188E2,2.1523318E2,1.8337814E1,1.4753418E0,4.292198E0,1.7896828E1,5.593994E0,7.3532715E0,2.6805542E1,6.706006E1,1.4507788E2,2.1269897E2,1.5490997E2,2.6447714E2,1.8346582E2,4.5997314E1,2.2283447E2,1.4407373E2,1.3306393E1,4.0457214E1,3.079969E1,3.5188347E1,2.0193286E2,7.26416E1,1.1905683E2,6.1284424E1,0E0,0E0,0E0,0E0,0E0,0E0,0E0,0E0,0E0,0E0,0E0,0E0,0E0,0E0,0E0,0E0,0E0,0E0,0E0,0E0,0E0,0E0,0E0,0E0,0E0,0E0,0E0,0E0,0E0,0E0,0E0,0E0,0E0,0E0,0E0,0E0,0E0,0E0,0E0,0E0,0E0,0E0,0E0,0E0,0E0,0E0,0E0,0E0],"parents":[2147483647,0,0,1,1,2,2,4,4,5,5,6,6,7,7,8,8,9,9,10,10,11,11,12,12,13,13,14,14,15,15,16,16,17,17,18,18,19,19,20,20,21,21,22,22,23,23,24,24,25,25,26,26,27,27,28,28,29,29,30,30,31,31,32,32,33,33,34,34,35,35,36,36,37,37,38,38,39,39,40,40,41,41,42,42,43,43,44,44,45,45,46,46,47,47,48,48],"right_children":[2,4,6,-1,8,10,12,14,16,18,20,22,24,26,28,30,32,34,36,38,40,42,44,46,48,50,52,54,56,58,60,62,64,66,68,70,72,74,76,78,80,82,84,86,88,90,92,94,96,-1,-1,-1,-1,-1,-1,-1,-1,-1,-1,-1,-1,-1,-1,-1,-1,-1,-1,-1,-1,-1,-1,-1,-1,-1,-1,-1,-1,-1,-1,-1,-1,-1,-1,-1,-1,-1,-1,-1,-1,-1,-1,-1,-1,-1,-1,-1,-1],"split_conditions":[5E0,3E0,1.4433756E-1,-1.5891813E-1,2E0,9E0,1.2E1,4E0,4E0,3E0,4E0,9E0,1.2E1,2.1E0,2E0,4E0,5E0,2E0,7E0,2E0,1.2E1,6E0,2.95E0,7E0,4.3E1,2E0,3.51E0,1E0,2.1E0,5E0,4.7E0,4E0,1.4433756E-1,2E0,7E0,5E0,5E0,2E0,2E0,2E0,1.4E1,3E0,2.95E0,7E0,8.504531E-1,8E0,2.7E1,1.4E1,6.4E1,-4.549929E-2,-1.1587196E-3,-7.1067095E-2,-5.6589827E-2,-2.1272874E-3,1.7360054E-2,4.827997E-2,-1.8602995E-2,-1.1012129E-1,-6.953179E-2,-1.3217592E-1,-1.1360626E-1,-4.8712056E-2,-6.903471E-2,-8.386719E-2,-1.1878607E-1,5.5044413E-2,9.3817934E-2,1.3428348E-2,4.642559E-2,-1.0617252E-2,-3.4107566E-2,2.6476612E-2,1.0699441E-3,8.730102E-2,6.122174E-2,1.2706912E-1,9.982691E-2,3.6510635E-2,6.7935726E-3,5.220805E-2,7.236208E-2,1.7278694E-2,-2.158109E-2,-8.2100056E-2,-4.2304095E-2,1.9074682E-2,-3.5379708E-2,4.1297596E-2,7.371106E-3,-9.2919074E-2,-5.5476937E-2,-5.6039896E-2,-1.0663888E-1,-3.0417157E-2,1.0796007E-2,-2.6276099E-2,-8.043456E-2],"split_indices":[8,8,14,0,0,8,0,8,8,0,0,8,8,1,3,0,0,0,8,9,8,0,1,11,9,9,1,4,1,3,1,0,14,3,8,0,0,0,0,11,8,0,1,0,14,8,0,8,0,0,0,0,0,0,0,0,0,0,0,0,0,0,0,0,0,0,0,0,0,0,0,0,0,0,0,0,0,0,0,0,0,0,0,0,0,0,0,0,0,0,0,0,0,0,0,0,0],"split_type":[0,0,0,0,0,0,0,0,0,0,0,0,0,0,0,0,0,0,0,0,0,0,0,0,0,0,0,0,0,0,0,0,0,0,0,0,0,0,0,0,0,0,0,0,0,0,0,0,0,0,0,0,0,0,0,0,0,0,0,0,0,0,0,0,0,0,0,0,0,0,0,0,0,0,0,0,0,0,0,0,0,0,0,0,0,0,0,0,0,0,0,0,0,0,0,0,0],"sum_hessian":[9.6946875E4,1.693505E4,8.001182E4,6.545884E3,1.0389168E4,6.839622E4,1.1615601E4,3.127478E3,7.26169E3,3.1929307E4,3.6466914E4,2.319716E3,9.295885E3,1.2762612E3,1.8512168E3,2.6329744E3,4.6287153E3,1.1389467E4,2.0539842E4,9.345134E3,2.712178E4,1.22362E3,1.0960962E3,6.4258125E3,2.8700728E3,6.1686096E2,6.5940027E2,1.6966375E3,1.5457932E2,1.3502906E3,1.2826837E3,2.5702607E3,2.0584548E3,6.349987E3,5.0394795E3,7.674854E3,1.2864987E4,7.3670215E3,1.978112E3,1.6230542E4,1.0891237E4,3.9285074E2,8.307692E2,2.8053937E2,8.1555676E2,4.4792915E3,1.9465208E3,2.120505E3,7.495679E2,5.4985345E2,6.700749E1,6.72053E1,5.92195E2,1.6219224E3,7.471512E1,1.22881096E2,3.169822E1,1.321665E3,2.8625525E1,1.0600046E3,2.226791E2,2.0389396E3,5.3132104E2,1.5965908E3,4.618639E2,5.6547256E3,6.952612E2,2.3039478E3,2.735532E3,2.872332E3,4.802522E3,3.6669717E3,9.198016E3,2.789686E3,4.5773354E3,5.8446875E2,1.3936433E3,1.4411253E4,1.8192892E3,7.6470664E3,3.2441707E3,6.7385025E1,3.254657E2,2.2634402E2,6.0442523E2,1.0629087E2,1.7424849E2,4.889648E2,3.2659198E2,1.3040814E3,3.17521E3,2.0673941E2,1.7397814E3,1.4770181E3,6.4348676E2,1.7594165E2,5.736262E2],"tree_param":{"num_deleted":"0","num_feature":"15","num_nodes":"97","size_leaf_vector":"1"}},{"base_weights":[1.0476041E-3,-1.1855296E0,2.5097877E-1,-1.4711526E-1,-7.7681774E-1,4.95285E-1,-5.273917E-1,-2.1935149E-1,-1.0169901E0,1.4769588E-1,6.6938645E-1,-2.803154E-1,-9.505472E-1,-5.720108E-1,2.59718E-2,-1.3665869E0,-8.1958115E-1,4.5952722E-1,-8.0935635E-2,7.8892696E-1,3.943985E-1,-5.97748E-1,-6.963996E-2,-7.317923E-1,-1.1728157E0,-7.277902E-1,-2.7479252E-1,-1.4399917E-1,1.6346729E-1,-1.2490554E0,-1.4888022E0,-6.890969E-1,-1.2248771E0,6.158946E-1,2.5847396E-1,6.786183E-2,-3.165525E-1,6.5420985E-1,8.835117E-1,-1.8562312E-1,4.6261385E-1,-1.0842394E0,-5.2672726E-1,-5.8392364E-1,1.2267566E-5,-8.349491E-1,-1.6725068E-1,-1.2577701E0,-8.2638997E-1,-7.102709E-2,-5.2613415E-2,-2.5861677E-2,1.0874207E-3,-9.557277E-3,-4.303396E-2,1.6045101E-2,-1.728203E-2,-1.0065802E-1,-6.171568E-2,-1.2179052E-1,-1.0583167E-1,-4.485309E-2,-6.815875E-2,-7.9658605E-2,-1.07698075E-1,3.635292E-2,5.601055E-2,4.4073755E-4,3.0088395E-2,-1.8550709E-2,1.393234E-2,-4.561689E-2,-1.575273E-2,7.437839E-2,4.588013E-2,6.689175E-2,9.57645E-2,5.035846E-3,-3.3466175E-2,2.0965721E-2,4.6726167E-2,-5.621711E-2,-9.402388E-2,-2.5604196E-2,-5.0761435E-2,-7.479759E-2,-3.2462247E-2,-1.0790801E-2,1.7019726E-2,-9.182294E-2,-5.8358714E-2,-3.3623192E-2,7.4462094E-3,-9.485957E-2,-1.1829976E-1,-5.9255064E-2,-1.1167547E-1],"categories":[],"categories_nodes":[],"categories_segments":[],"categories_sizes":[],"default_left":[0,0,0,0,0,0,0,0,0,0,0,0,0,0,0,0,0,0,0,0,0,0,0,0,0,0,0,0,0,0,0,0,0,0,0,0,0,0,0,0,0,0,0,0,0,0,0,0,0,0,0,0,0,0,0,0,0,0,0,0,0,0,0,0,0,0,0,0,0,0,0,0,0,0,0,0,0,0,0,0,0,0,0,0,0,0,0,0,0,0,0,0,0,0,0,0,0],"id":1,"left_children":[1,3,5,-1,7,9,11,13,15,17,19,21,23,25,27,29,31,33,35,37,39,41,43,45,47,49,51,53,55,57,59,61,63,65,67,69,71,73,75,77,79,81,83,85,87,89,91,93,95,-1,-1,-1,-1,-1,-1,-1,-1,-1,-1,-1,-1,-1,-1,-1,-1,-1,-1,-1,-1,-1,-1,-1,-1,-1,-1,-1,-1,-1,-1,-1,-1,-1,-1,-1,-1,-1,-1,-1,-1,-1,-1,-1,-1,-1,-1,-1,-1],"loss_changes":[2.8733053E4,4.5003203E3,1.521884E4,0E0,1.3884614E3,3.6860547E3,1.9986353E3,2.7031744E2,4.9913525E2,1.4494014E3,1.3337734E3,8.072897E2,3.418125E2,5.914801E1,4.3107086E1,3.5694824E1,2.4428687E2,2.7020972E2,4.112743E2,3.598496E2,4.867041E2,1.6581824E2,2.5996844E2,2.068628E2,1.0179199E2,8.847931E0,6.18935E0,7.908104E0,1.4396927E1,4.8933105E0,5.097168E0,7.292334E1,3.0013428E1,6.547754E1,1.1200534E2,2.2913708E2,1.3769061E2,2.5900635E2,2.4575879E2,7.493028E1,2.679087E2,2.0454224E1,9.3457275E1,5.3757385E1,1.8348352E2,9.831177E1,3.62965E1,4.287549E1,3.2696075E1,0E0,0E0,0E0,0E0,0E0,0E0,0E0,0E0,0E0,0E0,0E0,0E0,0E0,0E0,0E0,0E0,0E0,0E0,0E0,0E0,0E0,0E0,0E0,0E0,0E0,0E0,0E0,0E0,0E0,0E0,0E0,0E0,0E0,0E0,0E0,0E0,0E0,0E0,0E0,0E0,0E0,0E0,0E0,0E0,0E0,0E0,0E0,0E0],"parents":[2147483647,0,0,1,1,2,2,4,4,5,5,6,6,7,7,8,8,9,9,10,10,11,11,12,12,13,13,14,14,15,15,16,16,17,17,18,18,19,19,20,20,21,21,22,22,23,23,24,24,25,25,26,26,27,27,28,28,29,29,30,30,31,31,32,32,33,33,34,34,35,35,36,36,37,37,38,38,39,39,40,40,41,41,42,42,43,43,44,44,45,45,46,46,47,47,48,48],"right_children":[2,4,6,-1,8,10,12,14,16,18,20,22,24,26,28,30,32,34,36,38,40,42,44,46,48,50,52,54,56,58,60,62,64,66,68,70,72,74,76,78,80,82,84,86,88,90,92,94,96,-1,-1,-1,-1,-1,-1,-1,-1,-1,-1,-1,-1,-1,-1,-1,-1,-1,-1,-1,-1,-1,-1,-1,-1,-1,-1,-1,-1,-1,-1,-1,-1,-1,-1,-1,-1,-1,-1,-1,-1,-1,-1,-1,-1,-1,-1,-1,-1],"split_conditions":[5E0,3E0,1.45E1,-1.4711526E-1,2E0,8E0,3.4833332E1,4E0,4E0,3E0,5.5E0,9E0,5.55E1,4.72E2,2.95E2,4E0,1.05E1,2E0,5.5E0,1E1,2.67E0,3.09E0,3.09E0,1.3E1,1.3E1,1.6E2,1.353E3,1.89E2,1.03E2,5E0,4.7E0,4E0,7E0,6E0,6E0,6E0,3.32E0,2E0,1E0,7E0,1E1,9E0,8E0,2.56E0,1.2E1,8E0,2E0,9.9333336E1,1.2110714E2,-7.102709E-2,-5.2613415E-2,-2.5861677E-2,1.0874207E-3,-9.557277E-3,-4.303396E-2,1.6045101E-2,-1.728203E-2,-1.0065802E-1,-6.171568E-2,-1.2179052E-1,-1.0583167E-1,-4.485309E-2,-6.815875E-2,-7.9658605E-2,-1.07698075E-1,3.635292E-2,5.601055E-2,4.4073755E-4,3.0088395E-2,-1.8550709E-2,1.393234E-2,-4.561689E-2,-1.575273E-2,7.437839E-2,4.588013E-2,6.689175E-2,9.57645E-2,5.035846E-3,-3.3466175E-2,2.0965721E-2,4.6726167E-2,-5.621711E-2,-9.402388E-2,-2.5604196E-2,-5.0761435E-2,-7.479759E-2,-3.2462247E-2,-1.0790801E-2,1.7019726E-2,-9.182294E-2,-5.8358714E-2,-3.3623192E-2,7.4462094E-3,-9.485957E-2,-1.1829976E-1,-5.9255064E-2,-1.1167547E-1],"split_indices":[8,8,12,0,0,8,12,8,8,0,12,8,12,13,13,0,12,0,12,8,1,1,1,8,8,13,13,6,6,3,1,0,0,8,8,8,1,0,10,0,8,0,0,1,8,8,2,12,12,0,0,0,0,0,0,0,0,0,0,0,0,0,0,0,0,0,0,0,0,0,0,0,0,0,0,0,0,0,0,0,0,0,0,0,0,0,0,0,0,0,0,0,0,0,0,0,0],"split_type":[0,0,0,0,0,0,0,0,0,0,0,0,0,0,0,0,0,0,0,0,0,0,0,0,0,0,0,0,0,0,0,0,0,0,0,0,0,0,0,0,0,0,0,0,0,0,0,0,0,0,0,0,0,0,0,0,0,0,0,0,0,0,0,0,0,0,0,0,0,0,0,0,0,0,0,0,0,0,0,0,0,0,0,0,0,0,0,0,0,0,0,0,0,0,0,0,0],"sum_hessian":[9.688496E4,1.6855896E4,8.002906E4,6.4849106E3,1.0370986E4,6.0911273E4,1.911779E4,3.1233235E3,7.2476626E3,2.0328264E4,4.058301E4,1.2071199E4,7.046589E3,1.2808019E3,1.8425216E3,2.613471E3,4.634192E3,8.59902E3,1.1729243E4,2.8285227E4,1.2297785E4,4.814769E3,7.2564307E3,3.5535266E3,3.4930623E3,8.3940216E2,4.4139972E2,8.239334E2,1.0185882E3,1.3379833E3,1.2754877E3,3.5076204E3,1.1265713E3,4.8358877E3,3.763132E3,7.189574E3,4.5396694E3,1.1670646E4,1.661458E4,1.2939407E3,1.1003845E4,6.1152954E2,4.2032397E3,8.646707E2,6.39176E3,3.0041157E3,5.494111E2,2.803039E3,6.900231E2,2.5217433E2,5.8722784E2,3.7777383E2,6.3625908E1,7.768551E2,4.7078354E1,9.2831433E2,9.0273865E1,1.3111748E3,2.680845E1,1.0539857E3,2.2150198E2,1.9637153E3,1.5439052E3,3.93232E2,7.3333923E2,1.660019E3,3.1758687E3,1.1947902E3,2.5683418E3,1.8817731E3,5.307801E3,1.4537577E3,3.0859119E3,2.6417551E3,9.028892E3,1.4437311E4,2.1772686E3,6.259931E2,6.679475E2,4.151936E3,6.8519087E3,1.1951118E2,4.9201834E2,1.4421234E3,2.7611162E3,2.8965E2,5.750207E2,3.9116826E3,2.4800771E3,7.5492456E2,2.2491912E3,2.7829434E2,2.711167E2,2.1188015E3,6.8423755E2,6.017737E2,8.82494E1],"tree_param":{"num_deleted":"0","num_feature":"15","num_nodes":"97","size_leaf_vector":"1"}},{"base_weights":[-3.7224515E-4,-1.4591058E0,1.7236336E-1,-1.3782409E-1,-1.0212249E0,3.780068E-1,-5.150487E-1,-8.7306017E-1,-1.3945198E0,-1.1274171E-1,5.562423E-1,-2.843537E-1,-8.683119E-1,-6.647727E-1,-9.5232594E-1,-1.4494305E0,-1.2673451E0,1.361447E-2,-4.9609786E-1,6.6650486E-1,2.9575026E-1,-7.1454316E-1,-9.959787E-2,-6.9498706E-1,-1.1034272E0,-5.170049E-1,-1.4435925E0,-1.0877358E0,-7.642143E-1,-1.4046168E0,-1.2620023E-1,-2.368881E-1,-1.2737993E0,-3.055102E-1,1.677797E-1,-8.491068E-1,-3.4711143E-1,4.704051E-1,7.753729E-1,9.041392E-2,4.8570442E-1,-9.4579333E-1,-5.748276E-1,-7.530302E-1,-5.1265407E-2,-9.929931E-1,-5.28231E-1,-1.1808875E0,-7.9172593E-1,-5.730588E-2,-2.4167275E-2,-1.1736809E-1,-6.321862E-2,-1.0498587E-1,-8.4958754E-2,-7.316787E-2,-4.8820104E-2,-1.2084375E-1,-1.0957476E-1,-2.6204826E-3,-2.8180236E-2,-1.02252595E-1,-1.641575E-2,-2.921951E-2,-1.3355409E-2,5.3166095E-3,2.1533916E-2,-8.924818E-2,-6.2646545E-2,-5.5853322E-2,-2.1056771E-2,4.0310744E-2,2.7061047E-2,5.8700345E-2,8.5165575E-2,-2.3410093E-2,1.3843819E-2,4.960861E-3,4.431361E-2,-1.00545555E-1,-6.9639444E-2,-8.144979E-2,-4.082217E-2,-8.516677E-2,-5.2510872E-2,-1.0468278E-2,2.5469663E-2,-7.305596E-2,-1.00134015E-1,-5.077879E-2,-1.4306809E-2,-8.4734894E-2,-1.0314924E-1,-5.7958376E-2,-1.0908966E-1],"categories":[],"categories_nodes":[],"categories_segments":[],"categories_sizes":[],"default_left":[0,0,0,0,0,0,0,0,0,0,0,0,0,0,0,0,0,0,0,0,0,0,0,0,0,0,0,0,0,0,0,0,0,0,0,0,0,0,0,0,0,0,0,0,0,0,0,0,0,0,0,0,0,0,0,0,0,0,0,0,0,0,0,0,0,0,0,0,0,0,0,0,0,0,0,0,0,0,0,0,0,0,0,0,0,0,0,0,0,0,0,0,0,0,0],"id":2,"left_children":[1,3,5,-1,7,9,11,13,15,17,19,21,23,25,27,29,31,33,35,37,39,41,43,45,47,49,51,53,55,57,-1,59,61,63,65,67,69,71,73,75,77,79,81,83,85,87,89,91,93,-1,-1,-1,-1,-1,-1,-1,-1,-1,-1,-1,-1,-1,-1,-1,-1,-1,-1,-1,-1,-1,-1,-1,-1,-1,-1,-1,-1,-1,-1,-1,-1,-1,-1,-1,-1,-1,-1,-1,-1,-1,-1,-1,-1,-1,-1],"loss_changes":[2.4345646E4,1.1794434E3,1.2212358E4,0E0,2.1158057E2,5.8164873E3,1.6209766E3,4.488379E1,5.7854004E0,8.582311E2,1.4009062E3,9.5653796E2,3.194746E2,8.709454E1,4.9976807E1,2.1195068E0,1.9404297E0,6.5567957E2,2.3070325E2,7.3131934E2,5.658799E2,1.16283936E2,2.65911E2,2.2440894E2,7.954053E1,2.7331985E1,7.016754E-1,5.300171E0,1.88497E1,3.552246E-2,0E0,6.6808626E-2,1.296875E0,3.587146E1,9.230142E1,2.2050415E1,9.0838196E1,5.396704E1,2.6444727E2,2.20777E2,2.177948E2,3.076477E1,6.405322E1,1.6761963E1,2.3074336E2,3.235559E1,1.0796631E2,3.385205E1,2.4642853E1,0E0,0E0,0E0,0E0,0E0,0E0,0E0,0E0,0E0,0E0,0E0,0E0,0E0,0E0,0E0,0E0,0E0,0E0,0E0,0E0,0E0,0E0,0E0,0E0,0E0,0E0,0E0,0E0,0E0,0E0,0E0,0E0,0E0,0E0,0E0,0E0,0E0,0E0,0E0,0E0,0E0,0E0,0E0,0E0,0E0,0E0],"parents":[2147483647,0,0,1,1,2,2,4,4,5,5,6,6,7,7,8,8,9,9,10,10,11,11,12,12,13,13,14,14,15,15,16,16,17,17,18,18,19,19,20,20,21,21,22,22,23,23,24,24,25,25,26,26,27,27,28,28,29,29,31,31,32,32,33,33,34,34,35,35,36,36,37,37,38,38,39,39,40,40,41,41,42,42,43,43,44,44,45,45,46,46,47,47,48,48],"right_children":[2,4,6,-1,8,10,12,14,16,18,20,22,24,26,28,30,32,34,36,38,40,42,44,46,48,50,52,54,56,58,-1,60,62,64,66,68,70,72,74,76,78,80,82,84,86,88,90,92,94,-1,-1,-1,-1,-1,-1,-1,-1,-1,-1,-1,-1,-1,-1,-1,-1,-1,-1,-1,-1,-1,-1,-1,-1,-1,-1,-1,-1,-1,-1,-1,-1,-1,-1,-1,-1,-1,-1,-1,-1,-1,-1,-1,-1,-1,-1],"split_conditions":[4E0,3E0,1.45E1,-1.3782409E-1,5.5E0,7E0,3.25E1,1.33E0,4.5E0,5.5E0,5.5E0,8E0,5.7166668E1,2E0,5E0,1.4433756E-1,1E2,5E0,5E0,9E0,1E1,6E0,2.79E0,9E0,1.3E1,4.76E2,5E0,2E0,2.3159091E2,3E0,-1.2620023E-1,9.7E1,1.312E3,4.91E0,6E0,2.95E0,3E0,9.6E1,1E0,3E0,2.95E0,3.43E0,3.09E0,2.18E0,1.3E1,6.7936623E-1,1.3E1,7.75E1,1.2567143E2,-5.730588E-2,-2.4167275E-2,-1.1736809E-1,-6.321862E-2,-1.0498587E-1,-8.4958754E-2,-7.316787E-2,-4.8820104E-2,-1.2084375E-1,-1.0957476E-1,-2.6204826E-3,-2.8180236E-2,-1.02252595E-1,-1.641575E-2,-2.921951E-2,-1.3355409E-2,5.3166095E-3,2.1533916E-2,-8.924818E-2,-6.2646545E-2,-5.5853322E-2,-2.1056771E-2,4.0310744E-2,2.7061047E-2,5.8700345E-2,8.5165575E-2,-2.3410093E-2,1.3843819E-2,4.960861E-3,4.431361E-2,-1.00545555E-1,-6.9639444E-2,-8.144979E-2,-4.082217E-2,-8.516677E-2,-5.2510872E-2,-1.0468278E-2,2.5469663E-2,-7.305596E-2,-1.00134015E-1,-5.077879E-2,-1.4306809E-2,-8.4734894E-2,-1.0314924E-1,-5.7958376E-2,-1.0908966E-1],"split_indices":[8,8,12,0,12,8,12,1,1,12,12,8,12,12,1,14,13,8,8,8,8,8,1,8,8,13,3,1,13,1,0,13,13,1,8,1,1,6,10,1,1,1,1,1,8,14,8,12,12,0,0,0,0,0,0,0,0,0,0,0,0,0,0,0,0,0,0,0,0,0,0,0,0,0,0,0,0,0,0,0,0,0,0,0,0,0,0,0,0,0,0,0,0,0,0],"split_type":[0,0,0,0,0,0,0,0,0,0,0,0,0,0,0,0,0,0,0,0,0,0,0,0,0,0,0,0,0,0,0,0,0,0,0,0,0,0,0,0,0,0,0,0,0,0,0,0,0,0,0,0,0,0,0,0,0,0,0,0,0,0,0,0,0,0,0,0,0,0,0,0,0,0,0,0,0,0,0,0,0,0,0,0,0,0,0,0,0,0,0,0,0,0,0],"sum_hessian":[9.661721E4,1.0228783E4,8.638843E4,6.3823506E3,3.846433E3,6.649616E4,1.9892275E4,2.755919E3,1.0905142E3,1.7716477E4,4.877968E4,1.2034846E4,7.8574297E3,7.622728E2,1.9936461E3,7.5439105E2,3.3612308E2,1.332534E4,4.3911367E3,3.427149E4,1.4508192E4,3.6149202E3,8.419926E3,4.5253433E3,3.3320862E3,6.421076E2,1.2016518E2,1.1564252E3,8.372209E2,5.677118E2,1.8667928E2,2.3268828E0,3.337962E2,4.3401577E3,8.985182E3,1.3018441E3,3.0892927E3,1.2236211E4,2.2035275E4,6.9725225E3,7.5356694E3,1.359302E3,2.2556182E3,5.788992E2,7.8410264E3,1.6219093E3,2.9034338E3,2.6666204E3,6.654658E2,3.3193063E2,3.10177E2,1.14789474E2,5.3757052E0,1.138174E2,1.0426078E3,4.2103375E2,4.1618713E2,1.303111E2,4.374007E2,1.3038042E0,1.0230786E0,3.3224512E2,1.5511031E0,3.0316418E3,1.3085157E3,4.495018E3,4.490164E3,2.5533653E2,1.0465076E3,5.945024E2,2.4947903E3,9.760501E3,2.4757097E3,1.9266195E4,2.7690803E3,1.2368229E3,5.7356997E3,1.0452761E3,6.490393E3,2.6188812E2,1.0974138E3,2.8482614E2,1.9707921E3,1.346877E2,4.4421146E2,6.4523804E3,1.3886458E3,1.2430164E3,3.788929E2,2.2245298E3,6.789041E2,1.2617875E3,1.4048329E3,5.974782E2,6.798764E1],"tree_param":{"num_deleted":"0","num_feature":"15","num_nodes":"95","size_leaf_vector":"1"}},{"base_weights":[1.4598094E-3,-1.3705722E0,1.6201895E-1,-1.3018562E-1,-9.5359963E-1,3.5155138E-1,-4.774335E-1,-4.569727E-1,-1.1971716E0,7.707604E-3,5.721014E-1,-3.2221088E-1,-9.3862003E-1,-4.6861628E-1,3.3547804E-1,-1.0851351E0,-1.31364E0,4.1084817E-1,-1.31371E-1,6.7459196E-1,3.3969522E-1,-7.0937425E-1,-1.6508573E-1,-1.0165925E0,-5.984842E-1,-3.8217577E-1,-5.4845244E-1,4.2872316E-1,-2.7139425E-2,-1.0938692E0,-6.689838E-1,-1.2752725E0,-1.1842406E-1,5.3750418E-2,5.478789E-1,-4.128102E-1,7.119464E-2,6.009835E-1,1.0086515E0,-1.7114787E-1,4.0022156E-1,-9.154078E-1,-5.878695E-1,-5.55699E-3,-3.7407118E-1,-8.7420976E-1,-1.1486195E0,-3.0383953E-1,-7.9004294E-1,-2.6176991E-2,-5.192398E-2,-4.3319568E-2,-9.33213E-2,6.31363E-2,1.6178284E-2,-9.456689E-2,-8.397934E-2,-5.769534E-2,1.3868716E-2,-1.0565693E-1,-9.185784E-2,8.956181E-3,-1.7307183E-2,4.059156E-2,7.18885E-2,-4.8753675E-2,-1.9314498E-2,1.4926337E-2,-1.166136E-2,6.6002995E-2,4.4211335E-2,6.92498E-2,9.216191E-2,6.45043E-3,-3.182795E-2,2.519503E-2,5.203736E-2,-5.656268E-2,-8.247983E-2,-3.9390754E-2,-7.1966834E-2,-5.1735662E-2,3.5602914E-3,-4.181494E-2,-1.3594453E-2,-9.1003925E-2,-6.257326E-2,-8.4148854E-2,-1.09882355E-1,-4.6028186E-2,-4.42411E-3,-5.7780147E-2,-1.0261614E-1],"categories":[],"categories_nodes":[],"categories_segments":[],"categories_sizes":[],"default_left":[0,0,0,0,0,0,0,0,0,0,0,0,0,0,0,0,0,0,0,0,0,0,0,0,0,0,0,0,0,0,0,0,0,0,0,0,0,0,0,0,0,0,0,0,0,0,0,0,0,0,0,0,0,0,0,0,0,0,0,0,0,0,0,0,0,0,0,0,0,0,0,0,0,0,0,0,0,0,0,0,0,0,0,0,0,0,0,0,0,0,0,0,0],"id":3,"left_children":[1,3,5,-1,7,9,11,13,15,17,19,21,23,25,27,29,31,33,35,37,39,41,43,45,47,49,51,53,-1,55,57,59,-1,61,63,65,67,69,71,73,75,77,79,81,83,85,87,89,91,-1,-1,-1,-1,-1,-1,-1,-1,-1,-1,-1,-1,-1,-1,-1,-1,-1,-1,-1,-1,-1,-1,-1,-1,-1,-1,-1,-1,-1,-1,-1,-1,-1,-1,-1,-1,-1,-1,-1,-1,-1,-1,-1,-1],"loss_changes":[2.1184064E4,1.0769805E3,1.0433898E4,0E0,4.6415698E2,5.035948E3,1.4087456E3,1.1836395E1,3.219995E1,1.455084E3,9.6343164E2,8.9583887E2,1.3083154E2,8.401947E0,1.3352504E0,4.0631104E0,6.1606445E0,3.2570337E2,1.1000586E3,6.897373E2,3.82953E2,1.0589136E2,3.4931573E2,7.4759766E1,5.206314E1,8.624443E0,2.1481323E0,1.2330589E0,0E0,3.7827148E0,1.4307957E0,4.431885E0,0E0,2.9060495E1,6.784888E1,2.719618E2,2.809276E2,2.4874512E2,1.0292236E2,7.4946884E1,2.3608765E2,3.7214233E1,7.923834E1,1.9077243E2,1.3751874E2,4.6213867E1,4.3995605E1,2.4715229E1,1.7808136E1,0E0,0E0,0E0,0E0,0E0,0E0,0E0,0E0,0E0,0E0,0E0,0E0,0E0,0E0,0E0,0E0,0E0,0E0,0E0,0E0,0E0,0E0,0E0,0E0,0E0,0E0,0E0,0E0,0E0,0E0,0E0,0E0,0E0,0E0,0E0,0E0,0E0,0E0,0E0,0E0,0E0,0E0,0E0,0E0],"parents":[2147483647,0,0,1,1,2,2,4,4,5,5,6,6,7,7,8,8,9,9,10,10,11,11,12,12,13,13,14,14,15,15,16,16,17,17,18,18,19,19,20,20,21,21,22,22,23,23,24,24,25,25,26,26,27,27,29,29,30,30,31,31,33,33,34,34,35,35,36,36,37,37,38,38,39,39,40,40,41,41,42,42,43,43,44,44,45,45,46,46,47,47,48,48],"right_children":[2,4,6,-1,8,10,12,14,16,18,20,22,24,26,28,30,32,34,36,38,40,42,44,46,48,50,52,54,-1,56,58,60,-1,62,64,66,68,70,72,74,76,78,80,82,84,86,88,90,92,-1,-1,-1,-1,-1,-1,-1,-1,-1,-1,-1,-1,-1,-1,-1,-1,-1,-1,-1,-1,-1,-1,-1,-1,-1,-1,-1,-1,-1,-1,-1,-1,-1,-1,-1,-1,-1,-1,-1,-1,-1,-1,-1,-1],"split_conditions":[4E0,3E0,1.5E1,-1.3018562E-1,2E0,8E0,4.4666668E1,4E0,4E0,2E0,5.5E0,8E0,1.3E1,2.5E0,2.5E0,5E0,1.4433756E-1,5E0,6E0,2E0,2.67E0,6E0,2.475E1,6.48E1,6.4E1,3E0,3E0,5E0,-2.7139425E-2,2.84E0,3.68E0,4.5E0,-1.1842406E-1,3.9E1,2E0,5E0,5.5E0,2E0,3.32E0,7E0,3E0,8E0,3.5887027E-1,2.79E0,1E0,8E0,4E0,2E0,1.2567143E2,-2.6176991E-2,-5.192398E-2,-4.3319568E-2,-9.33213E-2,6.31363E-2,1.6178284E-2,-9.456689E-2,-8.397934E-2,-5.769534E-2,1.3868716E-2,-1.0565693E-1,-9.185784E-2,8.956181E-3,-1.7307183E-2,4.059156E-2,7.18885E-2,-4.8753675E-2,-1.9314498E-2,1.4926337E-2,-1.166136E-2,6.6002995E-2,4.4211335E-2,6.92498E-2,9.216191E-2,6.45043E-3,-3.182795E-2,2.519503E-2,5.203736E-2,-5.656268E-2,-8.247983E-2,-3.9390754E-2,-7.1966834E-2,-5.1735662E-2,3.5602914E-3,-4.181494E-2,-1.3594453E-2,-9.1003925E-2,-6.257326E-2,-8.4148854E-2,-1.09882355E-1,-4.6028186E-2,-4.42411E-3,-5.7780147E-2,-1.0261614E-1],"split_indices":[8,8,12,0,0,8,12,3,0,0,12,8,8,12,12,3,14,8,8,9,1,8,12,12,12,6,3,3,0,1,1,1,0,6,3,8,12,0,1,0,9,0,14,1,2,8,7,2,12,0,0,0,0,0,0,0,0,0,0,0,0,0,0,0,0,0,0,0,0,0,0,0,0,0,0,0,0,0,0,0,0,0,0,0,0,0,0,0,0,0,0,0,0],"split_type":[0,0,0,0,0,0,0,0,0,0,0,0,0,0,0,0,0,0,0,0,0,0,0,0,0,0,0,0,0,0,0,0,0,0,0,0,0,0,0,0,0,0,0,0,0,0,0,0,0,0,0,0,0,0,0,0,0,0,0,0,0,0,0,0,0,0,0,0,0,0,0,0,0,0,0,0,0,0,0,0,0,0,0,0,0,0,0,0,0,0,0,0,0],"sum_hessian":[9.616143E4,1.0073389E4,8.608804E4,6.232727E3,3.8406614E3,6.6405914E4,1.9682129E4,1.2647654E3,2.575896E3,2.595006E4,4.045585E4,1.4727095E4,4.9550337E3,1.2468539E3,1.7911552E1,1.3181869E3,1.2577091E3,6.65566E3,1.92944E4,2.8073568E4,1.2382281E4,4.2504014E3,1.0476693E4,4.0293584E3,9.256754E2,6.0144354E2,6.4541034E2,1.6057087E1,1.8544662E0,1.2894948E3,2.8692148E1,1.0293829E3,2.2832626E2,1.8461208E3,4.8095396E3,8.074656E3,1.1219745E4,2.3006902E4,5.0666665E3,1.3114872E3,1.1070794E4,1.5743202E3,2.6760815E3,5.941945E3,4.5347485E3,1.9423154E3,2.087043E3,3.657246E2,5.599508E2,5.0057498E2,1.00868576E2,6.400808E2,5.329561E0,5.237247E0,1.08198395E1,4.213566E2,8.681381E2,2.7153044E1,1.5391048E0,7.5128925E2,2.780937E2,1.5193097E3,3.2681116E2,4.314019E3,4.9552014E2,3.759312E3,4.3153433E3,7.324545E3,3.8952E3,4.0801624E3,1.892674E4,2.539895E3,2.5267715E3,6.216818E2,6.898053E2,8.258541E3,2.8122532E3,5.642549E2,1.01006525E3,2.0505386E3,6.2554297E2,4.294866E2,5.512458E3,2.6233638E3,1.9113848E3,5.0011606E2,1.4421993E3,1.4632241E3,6.238188E2,1.7415546E2,1.9156917E2,4.9438785E2,6.556295E1],"tree_param":{"num_deleted":"0","num_feature":"15","num_nodes":"93","size_leaf_vector":"1"}},{"base_weights":[-8.7045314E-4,-1.2941033E0,1.4699247E-1,-1.2388127E-1,-8.8643134E-1,3.4994888E-1,-3.5888195E-1,-4.3057963E-1,-1.1159946E0,3.9084435E-2,5.5459946E-1,-1.6228977E-1,-7.152117E-1,-4.405102E-1,2.5048584E-1,-1.0090058E0,-1.22844E0,3.804468E-1,-8.872199E-2,6.1700976E-1,3.591305E-1,-5.508026E-1,1.1482559E-2,-5.652173E-1,-9.669944E-1,-3.6944112E-1,-5.066429E-1,5.026805E-1,-5.2035484E-2,-9.611527E-1,-1.0809523E0,-1.1902348E0,-1.3995804E0,4.289056E-2,5.104536E-1,-5.425398E-1,2.135495E-2,4.99366E-1,6.996823E-1,-2.5020996E-1,3.9713898E-1,-7.831346E-1,-4.0344155E-1,-1.0510558E-1,2.7049282E-1,-8.419436E-1,-4.0604898E-1,-1.0959988E0,-8.207766E-1,-2.5618419E-2,-4.9244776E-2,-3.816561E-2,-5.2115016E-2,5.5947907E-2,-1.599486E-2,-1.1732039E-2,2.5325593E-2,-7.8952014E-2,-6.2063012E-2,-9.286097E-2,-8.1492566E-2,-1.0360518E-1,-9.262036E-2,-1.12368226E-1,-4.0891457E-2,4.7813135E-4,3.5736907E-2,3.879412E-2,7.789268E-2,-3.4307227E-2,-5.4995794E-2,1.3010053E-2,-7.3273685E-3,5.399223E-2,3.1140154E-2,5.273011E-2,7.7452004E-2,-1.3219126E-3,-3.3486567E-2,1.8322568E-2,4.0354148E-2,-8.387397E-2,-5.559244E-2,-5.839158E-2,-2.6019922E-2,-5.1048506E-2,-4.378043E-3,-1.8798824E-2,2.6040832E-2,-5.9802845E-2,-8.347066E-2,-7.151101E-2,-2.7980074E-2,-8.009189E-2,-1.0291277E-1,-6.0912535E-2,-9.838293E-2],"categories":[],"categories_nodes":[],"categories_segments":[],"categories_sizes":[],"default_left":[0,0,0,0,0,0,0,0,0,0,0,0,0,0,0,0,0,0,0,0,0,0,0,0,0,0,0,0,0,0,0,0,0,0,0,0,0,0,0,0,0,0,0,0,0,0,0,0,0,0,0,0,0,0,0,0,0,0,0,0,0,0,0,0,0,0,0,0,0,0,0,0,0,0,0,0,0,0,0,0,0,0,0,0,0,0,0,0,0,0,0,0,0,0,0,0,0],"id":4,"left_children":[1,3,5,-1,7,9,11,13,15,17,19,21,23,25,27,29,31,33,35,37,39,41,43,45,47,49,51,53,55,57,59,61,63,65,67,69,71,73,75,77,79,81,83,85,87,89,91,93,95,-1,-1,-1,-1,-1,-1,-1,-1,-1,-1,-1,-1,-1,-1,-1,-1,-1,-1,-1,-1,-1,-1,-1,-1,-1,-1,-1,-1,-1,-1,-1,-1,-1,-1,-1,-1,-1,-1,-1,-1,-1,-1,-1,-1,-1,-1,-1,-1],"loss_changes":[1.8304438E4,1.01730273E3,8.819742E3,0E0,3.9470996E2,3.9002236E3,1.7229087E3,8.675842E0,2.896875E1,1.0618933E3,4.5077246E2,1.0702502E3,3.2971777E2,5.6812897E0,1.4634022E0,3.4100342E0,6.309082E0,2.909472E2,8.8468506E2,2.7217578E2,2.0736768E2,1.6741553E2,3.30821E2,2.4114832E2,6.065625E1,7.1369705E0,2.4471283E0,1.5724237E0,3.7672278E-1,2.9815674E0,1.3440552E0,1.918335E0,2.4990845E-1,2.7495049E1,5.612671E1,5.6663574E1,2.2744348E2,2.2333325E2,1.7850879E2,2.069186E1,1.518241E2,4.3751343E1,7.6337006E1,2.0282928E2,9.4646774E1,3.7275757E1,9.533447E1,2.9970215E1,3.6304077E1,0E0,0E0,0E0,0E0,0E0,0E0,0E0,0E0,0E0,0E0,0E0,0E0,0E0,0E0,0E0,0E0,0E0,0E0,0E0,0E0,0E0,0E0,0E0,0E0,0E0,0E0,0E0,0E0,0E0,0E0,0E0,0E0,0E0,0E0,0E0,0E0,0E0,0E0,0E0,0E0,0E0,0E0,0E0,0E0,0E0,0E0,0E0,0E0],"parents":[2147483647,0,0,1,1,2,2,4,4,5,5,6,6,7,7,8,8,9,9,10,10,11,11,12,12,13,13,14,14,15,15,16,16,17,17,18,18,19,19,20,20,21,21,22,22,23,23,24,24,25,25,26,26,27,27,28,28,29,29,30,30,31,31,32,32,33,33,34,34,35,35,36,36,37,37,38,38,39,39,40,40,41,41,42,42,43,43,44,44,45,45,46,46,47,47,48,48],"right_children":[2,4,6,-1,8,10,12,14,16,18,20,22,24,26,28,30,32,34,36,38,40,42,44,46,48,50,52,54,56,58,60,62,64,66,68,70,72,74,76,78,80,82,84,86,88,90,92,94,96,-1,-1,-1,-1,-1,-1,-1,-1,-1,-1,-1,-1,-1,-1,-1,-1,-1,-1,-1,-1,-1,-1,-1,-1,-1,-1,-1,-1,-1,-1,-1,-1,-1,-1,-1,-1,-1,-1,-1,-1,-1,-1,-1,-1,-1,-1,-1,-1],"split_conditions":[4E0,3E0,1.05E1,-1.2388127E-1,2E0,8E0,3E1,4E0,4E0,2E0,5.5E0,8E0,5.7166668E1,2.29E0,6E0,3E0,1.4433756E-1,5E0,5E0,1E1,2.33E0,6E0,1.2E1,9E0,1.1E1,3E0,1E0,1.33E0,1.33E0,2E0,3.22E0,2.81E0,4.86E0,2E0,3E0,4E0,4E0,3E0,1E0,6E0,1E1,3.41E0,3.22E0,2.75E0,3E0,5.400617E-1,3.12E0,3E0,1.2110714E2,-2.5618419E-2,-4.9244776E-2,-3.816561E-2,-5.2115016E-2,5.5947907E-2,-1.599486E-2,-1.1732039E-2,2.5325593E-2,-7.8952014E-2,-6.2063012E-2,-9.286097E-2,-8.1492566E-2,-1.0360518E-1,-9.262036E-2,-1.12368226E-1,-4.0891457E-2,4.7813135E-4,3.5736907E-2,3.879412E-2,7.789268E-2,-3.4307227E-2,-5.4995794E-2,1.3010053E-2,-7.3273685E-3,5.399223E-2,3.1140154E-2,5.273011E-2,7.7452004E-2,-1.3219126E-3,-3.3486567E-2,1.8322568E-2,4.0354148E-2,-8.387397E-2,-5.559244E-2,-5.839158E-2,-2.6019922E-2,-5.1048506E-2,-4.378043E-3,-1.8798824E-2,2.6040832E-2,-5.9802845E-2,-8.347066E-2,-7.151101E-2,-2.7980074E-2,-8.009189E-2,-1.0291277E-1,-6.0912535E-2,-9.838293E-2],"split_indices":[8,8,12,0,0,8,12,3,0,0,12,8,12,1,3,0,14,8,8,8,1,8,8,8,8,6,3,1,1,3,1,1,1,3,3,0,0,0,10,0,8,1,1,1,1,14,1,7,12,0,0,0,0,0,0,0,0,0,0,0,0,0,0,0,0,0,0,0,0,0,0,0,0,0,0,0,0,0,0,0,0,0,0,0,0,0,0,0,0,0,0,0,0,0,0,0,0],"split_type":[0,0,0,0,0,0,0,0,0,0,0,0,0,0,0,0,0,0,0,0,0,0,0,0,0,0,0,0,0,0,0,0,0,0,0,0,0,0,0,0,0,0,0,0,0,0,0,0,0,0,0,0,0,0,0,0,0,0,0,0,0,0,0,0,0,0,0,0,0,0,0,0,0,0,0,0,0,0,0,0,0,0,0,0,0,0,0,0,0,0,0,0,0,0,0,0,0],"sum_hessian":[9.572189E4,9.820702E3,8.590119E4,6.045276E3,3.7754265E3,6.13057E4,2.4595488E4,1.2654518E3,2.5099749E3,2.433778E4,3.696792E4,1.5851466E4,8.744022E3,1.2476135E3,1.7838179E1,1.291305E3,1.2186698E3,6.629324E3,1.7708455E4,2.8019545E4,8.948378E3,4.898172E3,1.0953295E4,5.481673E3,3.26235E3,6.045373E2,6.4307623E2,9.367443E0,8.470736E0,7.841262E2,5.0717886E2,1.0027675E3,2.1590227E2,1.8436664E3,4.7856577E3,3.4560708E3,1.4252384E4,1.156685E4,1.6452695E4,5.250675E2,8.423311E3,1.899334E3,2.9988376E3,7.553732E3,3.3995627E3,2.0000839E3,3.4815886E3,1.7297439E3,1.5326062E3,5.0572073E2,9.881659E1,5.375769E2,1.0549934E2,7.3224697E0,2.044973E0,7.2197027E0,1.2510326E0,6.846967E2,9.9429474E1,2.1460432E2,2.9257455E2,2.2800578E2,7.747617E2,2.1411087E2,1.7913858E0,1.6901792E3,1.5348724E2,4.5376367E3,2.480212E2,1.93879E3,1.5172808E3,6.332032E3,7.9203516E3,4.4568643E3,7.109985E3,1.4296467E4,2.1562285E3,2.2034532E2,3.0472217E2,3.282762E3,5.1405483E3,4.7130762E2,1.4280262E3,5.778759E2,2.420962E3,6.5132336E2,6.9024087E3,3.333759E2,3.0661868E3,1.3650444E3,6.3503955E2,3.586765E2,3.122912E3,1.1587758E3,5.70968E2,1.3408384E3,1.917678E2],"tree_param":{"num_deleted":"0","num_feature":"15","num_nodes":"97","size_leaf_vector":"1"}},{"base_weights":[-6.826948E-4,-1.2275535E0,1.3651823E-1,-1.18567996E-1,-8.307079E-1,3.269347E-1,-3.3645752E-1,-7.036206E-1,-1.1607641E0,-6.644804E-2,4.7445765E-1,-1.158321E-1,-6.102224E-1,-7.6877636E-1,-5.328027E-1,-1.1210561E0,-1.0533795E-1,-3.1415617E-1,4.9352344E-2,3.0078918E-1,5.6957054E-1,-3.9202797E-1,1.0480521E-1,-4.5961395E-1,-8.4975296E-1,-8.531949E-1,-6.1685306E-1,-3.163469E-1,-6.8342716E-1,-1.2889785E0,-1.0901084E0,-2.3417017E-1,-6.5951616E-1,1.2756501E-1,-2.488221E-1,3.7218842E-1,5.6218844E-2,4.9905646E-1,7.9778665E-1,-7.0116687E-1,-2.75208E-1,-2.7179378E-1,1.700963E-1,-6.5849847E-1,-2.5289896E-1,-9.226163E-1,-5.411344E-1,-5.68692E-2,-7.663396E-2,-6.026301E-2,-3.816792E-2,-1.4501048E-2,-8.93865E-2,-6.2449522E-2,-3.199866E-2,-1.0366387E-1,-4.0131915E-2,-5.6363163E-3,-8.737261E-2,-1.798107E-2,-6.334894E-2,-7.4863575E-2,-4.704372E-2,3.3460667E-3,1.7079098E-2,-4.5164537E-2,-1.377862E-2,2.756399E-2,5.7468157E-2,-3.6810458E-2,7.755781E-3,4.2577785E-2,1.0434931E-2,7.5070366E-2,4.6495717E-2,-6.871058E-2,-4.5724988E-2,-4.513858E-2,-1.4530246E-2,-5.902236E-2,-1.488306E-2,1.9272992E-3,2.763842E-2,-8.155577E-2,-4.8984997E-2,-5.947319E-2,-1.4972351E-2,-6.776411E-2,-8.7830916E-2,-3.0723149E-2,-6.11742E-2],"categories":[],"categories_nodes":[],"categories_segments":[],"categories_sizes":[],"default_left":[0,0,0,0,0,0,0,0,0,0,0,0,0,0,0,0,0,0,0,0,0,0,0,0,0,0,0,0,0,0,0,0,0,0,0,0,0,0,0,0,0,0,0,0,0,0,0,0,0,0,0,0,0,0,0,0,0,0,0,0,0,0,0,0,0,0,0,0,0,0,0,0,0,0,0,0,0,0,0,0,0,0,0,0,0,0,0,0,0,0,0],"id":5,"left_children":[1,3,5,-1,7,9,11,13,15,17,19,21,23,25,27,29,-1,31,33,35,37,39,41,43,45,47,49,51,53,55,57,59,61,63,65,67,69,71,73,75,77,79,81,83,85,87,89,-1,-1,-1,-1,-1,-1,-1,-1,-1,-1,-1,-1,-1,-1,-1,-1,-1,-1,-1,-1,-1,-1,-1,-1,-1,-1,-1,-1,-1,-1,-1,-1,-1,-1,-1,-1,-1,-1,-1,-1,-1,-1,-1,-1],"loss_changes":[1.5991257E4,9.640078E2,7.6955186E3,0E0,1.5590381E2,3.5354058E3,1.4813025E3,2.9641846E1,4.9468994E0,4.7663492E2,7.3166797E2,8.2774426E2,3.944463E2,2.4512207E1,2.4197128E1,2.9259033E0,0E0,1.4606805E2,2.6410703E2,2.7379053E2,4.6026465E2,2.1764447E2,1.8572552E2,2.7618542E2,9.448389E1,1.7986877E1,1.3005859E1,3.324376E1,1.1827774E1,1.6906738E-2,1.4069214E0,2.237738E1,1.9093597E1,6.608182E1,5.681108E1,1.1587158E2,7.458445E1,2.6732373E2,2.051626E2,3.331067E1,1.1834567E2,4.4464767E1,1.6480591E2,5.6476562E1,1.06206635E2,4.4309082E1,2.8123138E1,0E0,0E0,0E0,0E0,0E0,0E0,0E0,0E0,0E0,0E0,0E0,0E0,0E0,0E0,0E0,0E0,0E0,0E0,0E0,0E0,0E0,0E0,0E0,0E0,0E0,0E0,0E0,0E0,0E0,0E0,0E0,0E0,0E0,0E0,0E0,0E0,0E0,0E0,0E0,0E0,0E0,0E0,0E0,0E0],"parents":[2147483647,0,0,1,1,2,2,4,4,5,5,6,6,7,7,8,8,9,9,10,10,11,11,12,12,13,13,14,14,15,15,17,17,18,18,19,19,20,20,21,21,22,22,23,23,24,24,25,25,26,26,27,27,28,28,29,29,30,30,31,31,32,32,33,33,34,34,35,35,36,36,37,37,38,38,39,39,40,40,41,41,42,42,43,43,44,44,45,45,46,46],"right_children":[2,4,6,-1,8,10,12,14,16,18,20,22,24,26,28,30,-1,32,34,36,38,40,42,44,46,48,50,52,54,56,58,60,62,64,66,68,70,72,74,76,78,80,82,84,86,88,90,-1,-1,-1,-1,-1,-1,-1,-1,-1,-1,-1,-1,-1,-1,-1,-1,-1,-1,-1,-1,-1,-1,-1,-1,-1,-1,-1,-1,-1,-1,-1,-1,-1,-1,-1,-1,-1,-1,-1,-1,-1,-1,-1,-1],"split_conditions":[4E0,3E0,1.05E1,-1.18567996E-1,5.5E0,7E0,2.5E1,5.49E2,1.4433756E-1,5E0,9E0,9E0,4.9E1,5E0,1.33E0,3E0,-1.0533795E-1,5.5E0,5.5E0,5.5E0,2E0,6E0,3.09E0,1E1,1.3E1,2E0,2.06E2,2E0,4.6E0,6E0,9.4E1,1.4433756E-1,3E0,6E0,2.95E0,3E0,2.33E0,1E1,5.5E0,5E0,3.37E0,2.18E0,3E0,3.14E0,3.14E0,8.6E1,8.3E1,-5.68692E-2,-7.663396E-2,-6.026301E-2,-3.816792E-2,-1.4501048E-2,-8.93865E-2,-6.2449522E-2,-3.199866E-2,-1.0366387E-1,-4.0131915E-2,-5.6363163E-3,-8.737261E-2,-1.798107E-2,-6.334894E-2,-7.4863575E-2,-4.704372E-2,3.3460667E-3,1.7079098E-2,-4.5164537E-2,-1.377862E-2,2.756399E-2,5.7468157E-2,-3.6810458E-2,7.755781E-3,4.2577785E-2,1.0434931E-2,7.5070366E-2,4.6495717E-2,-6.871058E-2,-4.5724988E-2,-4.513858E-2,-1.4530246E-2,-5.902236E-2,-1.488306E-2,1.9272992E-3,2.763842E-2,-8.155577E-2,-4.8984997E-2,-5.947319E-2,-1.4972351E-2,-6.776411E-2,-8.7830916E-2,-3.0723149E-2,-6.11742E-2],"split_indices":[8,8,12,0,12,8,12,13,14,8,8,8,12,1,1,1,0,12,12,12,9,8,1,8,8,12,13,12,1,4,13,14,1,8,1,9,1,12,12,8,1,1,9,1,1,12,12,0,0,0,0,0,0,0,0,0,0,0,0,0,0,0,0,0,0,0,0,0,0,0,0,0,0,0,0,0,0,0,0,0,0,0,0,0,0,0,0,0,0,0,0],"split_type":[0,0,0,0,0,0,0,0,0,0,0,0,0,0,0,0,0,0,0,0,0,0,0,0,0,0,0,0,0,0,0,0,0,0,0,0,0,0,0,0,0,0,0,0,0,0,0,0,0,0,0,0,0,0,0,0,0,0,0,0,0,0,0,0,0,0,0,0,0,0,0,0,0,0,0,0,0,0,0,0,0,0,0,0,0,0,0,0,0,0,0],"sum_hessian":[9.499868E4,9.554348E3,8.5444336E4,5.8190996E3,3.7352483E3,6.0919082E4,2.4525252E4,2.699099E3,1.0361492E3,1.6614809E4,4.4304273E4,1.3581461E4,1.0943792E4,1.951305E3,7.47794E2,8.3240405E2,2.0374507E2,5.2923184E3,1.132249E4,1.5679294E4,2.8624979E4,6.0310093E3,7.550451E3,6.720865E3,4.222927E3,1.2513545E3,6.999505E2,3.0811533E2,4.396787E2,1.23210754E2,7.091933E2,4.298464E3,9.938543E2,8.970147E3,2.352343E3,1.2135859E4,3.5434348E3,2.1870604E4,6.754374E3,1.6526432E3,4.378366E3,1.1151431E3,6.435308E3,3.424195E3,3.2966702E3,3.4147349E3,8.0819165E2,5.3375616E2,7.175983E2,3.5196002E2,3.4799048E2,2.647006E2,4.341473E1,3.2610464E2,1.13574066E2,1.2151238E2,1.6983689E0,1.493366E0,7.0769995E2,4.2285425E3,6.992133E1,2.017727E2,7.920816E2,4.4906396E3,4.4795073E3,4.5797964E2,1.8943634E3,1.1240394E4,8.954657E2,2.5831052E2,3.2851243E3,2.0064861E4,1.8057418E3,4.0937244E3,2.6606497E3,7.429375E2,9.097056E2,1.0696603E3,3.3087058E3,1.7214166E2,9.4300146E2,3.512408E3,2.9229001E3,3.860556E2,3.0381394E3,3.8841602E2,2.9082542E3,2.39011E3,1.0246248E3,4.7623514E2,3.319565E2],"tree_param":{"num_deleted":"0","num_feature":"15","num_nodes":"91","size_leaf_vector":"1"}},{"base_weights":[1.0118715E-3,-1.1680707E0,1.2772118E-1,-1.1406437E-1,-7.7491874E-1,2.7957115E-1,-3.8199866E-1,-3.544851E-1,-9.936536E-1,-8.7128066E-2,4.140236E-1,-2.4348593E-1,-7.1934927E-1,-4.842912E-1,-9.558462E-2,-8.9151055E-1,-1.1040565E0,2.700022E-1,-2.2525822E-1,4.968277E-1,2.2169805E-1,-5.5830234E-1,-1.1557651E-1,-8.528997E-1,-5.4927707E-1,-5.8682185E-1,-3.8236454E-1,-1.373924E-1,3.4144238E-1,-8.3986765E-1,-9.688414E-1,-1.0669954E0,-1.01681545E-1,6.655421E-2,3.9188874E-1,-4.9857572E-1,-1.1231257E-1,4.369089E-1,7.9056805E-1,6.0471702E-2,3.725852E-1,-3.4881416E-1,-6.6115206E-1,-5.028709E-1,-6.30852E-2,-6.454631E-1,-9.53411E-1,-3.9392772E-1,-7.687355E-1,-4.7467846E-2,6.556568E-2,-3.6978673E-2,-2.1647228E-2,-1.3206573E-2,7.4353907E-3,1.756996E-2,6.0102537E-2,-6.771559E-2,-1.2763693E-2,-7.791286E-2,3.0026551E-2,-9.537075E-2,-8.209059E-2,-3.0518596E-3,1.9738507E-2,2.490951E-2,4.4889066E-2,-3.2531824E-2,-5.411721E-2,3.5522725E-3,-1.9128539E-2,2.2097277E-2,3.9960675E-2,8.1008166E-2,5.5628102E-2,-3.6689803E-2,7.87589E-3,1.6852088E-3,3.43855E-2,-5.364814E-2,-2.1831261E-2,-8.099826E-2,-4.795996E-2,-2.3122286E-2,-5.071393E-2,-1.0333614E-2,1.8736744E-2,-6.40637E-2,-4.3638535E-2,-8.8676736E-2,-7.01559E-2,-4.340504E-2,-1.1486157E-2,-7.447907E-2,-5.0843056E-2],"categories":[],"categories_nodes":[],"categories_segments":[],"categories_sizes":[],"default_left":[0,0,0,0,0,0,0,0,0,0,0,0,0,0,0,0,0,0,0,0,0,0,0,0,0,0,0,0,0,0,0,0,0,0,0,0,0,0,0,0,0,0,0,0,0,0,0,0,0,0,0,0,0,0,0,0,0,0,0,0,0,0,0,0,0,0,0,0,0,0,0,0,0,0,0,0,0,0,0,0,0,0,0,0,0,0,0,0,0,0,0,0,0,0,0],"id":6,"left_children":[1,3,5,-1,7,9,11,13,15,17,19,21,23,25,27,29,31,33,35,37,39,41,43,45,47,49,51,53,55,57,59,61,-1,63,65,67,69,71,73,75,77,79,81,83,85,87,89,91,93,-1,-1,-1,-1,-1,-1,-1,-1,-1,-1,-1,-1,-1,-1,-1,-1,-1,-1,-1,-1,-1,-1,-1,-1,-1,-1,-1,-1,-1,-1,-1,-1,-1,-1,-1,-1,-1,-1,-1,-1,-1,-1,-1,-1,-1,-1],"loss_changes":[1.396825E4,9.3321094E2,6.5849355E3,0E0,3.3562085E2,3.2317788E3,9.1229346E2,4.202243E1,2.6108887E1,8.676077E2,7.637041E2,5.5744617E2,1.2862183E2,8.486374E0,7.707504E0,4.190796E0,5.762207E0,1.2161554E2,3.914394E2,5.8974316E2,3.5117963E2,8.594714E1,2.0013885E2,6.572339E1,8.5022095E1,4.2830048E0,3.6320534E0,2.4605012E0,1.6769757E0,3.26062E0,3.7403564E0,3.6225586E0,0E0,3.4702244E1,4.1621216E1,6.036206E1,1.7835062E2,2.8E2,1.19357666E2,1.3765479E2,1.5002222E2,3.204648E1,5.747583E1,3.2747833E1,1.7041023E2,1.5739563E1,2.4412231E1,5.4527573E1,2.1803894E1,0E0,0E0,0E0,0E0,0E0,0E0,0E0,0E0,0E0,0E0,0E0,0E0,0E0,0E0,0E0,0E0,0E0,0E0,0E0,0E0,0E0,0E0,0E0,0E0,0E0,0E0,0E0,0E0,0E0,0E0,0E0,0E0,0E0,0E0,0E0,0E0,0E0,0E0,0E0,0E0,0E0,0E0,0E0,0E0,0E0,0E0],"parents":[2147483647,0,0,1,1,2,2,4,4,5,5,6,6,7,7,8,8,9,9,10,10,11,11,12,12,13,13,14,14,15,15,16,16,17,17,18,18,19,19,20,20,21,21,22,22,23,23,24,24,25,25,26,26,27,27,28,28,29,29,30,30,31,31,33,33,34,34,35,35,36,36,37,37,38,38,39,39,40,40,41,41,42,42,43,43,44,44,45,45,46,46,47,47,48,48],"right_children":[2,4,6,-1,8,10,12,14,16,18,20,22,24,26,28,30,32,34,36,38,40,42,44,46,48,50,52,54,56,58,60,62,-1,64,66,68,70,72,74,76,78,80,82,84,86,88,90,92,94,-1,-1,-1,-1,-1,-1,-1,-1,-1,-1,-1,-1,-1,-1,-1,-1,-1,-1,-1,-1,-1,-1,-1,-1,-1,-1,-1,-1,-1,-1,-1,-1,-1,-1,-1,-1,-1,-1,-1,-1,-1,-1,-1,-1,-1,-1],"split_conditions":[4E0,3E0,1.45E1,-1.1406437E-1,2E0,7E0,4E1,4.87E2,4E0,2E0,5.5E0,8E0,1.1E1,2.27E2,1.645E3,3E0,1.4433756E-1,5E0,5E0,2E0,1E1,8E0,3.09E0,2.8E1,7E1,5E0,4.52E0,2E0,2E0,5E0,7E0,2.84E0,-1.01681545E-1,4.51E2,5.025E2,5E0,4E0,3E0,3E0,2.33E0,2.95E0,5E0,5E0,1.4E1,1.3E1,8E0,8E0,5E0,1.2E1,-4.7467846E-2,6.556568E-2,-3.6978673E-2,-2.1647228E-2,-1.3206573E-2,7.4353907E-3,1.756996E-2,6.0102537E-2,-6.771559E-2,-1.2763693E-2,-7.791286E-2,3.0026551E-2,-9.537075E-2,-8.209059E-2,-3.0518596E-3,1.9738507E-2,2.490951E-2,4.4889066E-2,-3.2531824E-2,-5.411721E-2,3.5522725E-3,-1.9128539E-2,2.2097277E-2,3.9960675E-2,8.1008166E-2,5.5628102E-2,-3.6689803E-2,7.87589E-3,1.6852088E-3,3.43855E-2,-5.364814E-2,-2.1831261E-2,-8.099826E-2,-4.795996E-2,-2.3122286E-2,-5.071393E-2,-1.0333614E-2,1.8736744E-2,-6.40637E-2,-4.3638535E-2,-8.8676736E-2,-7.01559E-2,-4.340504E-2,-1.1486157E-2,-7.447907E-2,-5.0843056E-2],"split_indices":[8,8,12,0,0,8,12,13,0,0,12,8,8,13,13,0,14,8,8,9,8,0,1,0,12,3,1,9,12,9,9,1,0,13,13,0,0,12,0,1,1,8,8,0,8,8,8,10,10,0,0,0,0,0,0,0,0,0,0,0,0,0,0,0,0,0,0,0,0,0,0,0,0,0,0,0,0,0,0,0,0,0,0,0,0,0,0,0,0,0,0,0,0,0,0],"split_type":[0,0,0,0,0,0,0,0,0,0,0,0,0,0,0,0,0,0,0,0,0,0,0,0,0,0,0,0,0,0,0,0,0,0,0,0,0,0,0,0,0,0,0,0,0,0,0,0,0,0,0,0,0,0,0,0,0,0,0,0,0,0,0,0,0,0,0,0,0,0,0,0,0,0,0,0,0,0,0,0,0,0,0,0,0,0,0,0,0,0,0,0,0,0,0],"sum_hessian":[9.429292E4,9.219651E3,8.5073266E4,5.5673213E3,3.65233E3,6.5546766E4,1.9526502E4,1.2507894E3,2.4015408E3,1.7585438E4,4.796133E4,1.3844013E4,5.6824893E3,8.325163E2,4.1827307E2,1.2521477E3,1.1493931E3,4.9043843E3,1.2681054E4,3.3525598E4,1.4435732E4,3.9987483E3,9.845265E3,3.1807595E3,2.5017295E3,4.126568E2,4.198595E2,3.8237878E2,3.589429E1,7.5788165E2,4.9426602E2,9.4665344E2,2.0273965E2,1.8380062E3,3.066378E3,3.707017E3,8.974036E3,2.7847578E4,5.678018E3,6.979442E3,7.456291E3,1.3181932E3,2.6805552E3,1.1740729E3,8.671192E3,1.0405925E3,2.140167E3,1.466456E3,1.0352734E3,4.113262E2,1.3306006E0,2.4305077E2,1.7680875E2,3.415969E2,4.078188E1,2.8853848E1,7.0404425E0,7.5038293E2,7.498731E0,4.9268338E2,1.5826385E0,2.2609291E2,7.205605E2,1.162978E3,6.7502814E2,2.0796746E3,9.867032E2,2.4461873E3,1.2608301E3,4.0137463E3,4.96029E3,7.808527E3,2.003905E4,1.7012571E3,3.9767612E3,4.750507E2,6.504391E3,1.044219E3,6.4120723E3,2.50149E2,1.0680442E3,3.978708E2,2.2826843E3,4.4734155E2,7.267314E2,7.094693E3,1.5764991E3,4.0475198E2,6.358405E2,7.023863E2,1.4377806E3,9.194211E2,5.4703503E2,4.640304E2,5.7124304E2],"tree_param":{"num_deleted":"0","num_feature":"15","num_nodes":"95","size_leaf_vector":"1"}},{"base_weights":[-2.9098222E-3,-1.1179585E0,1.14729084E-1,-1.1019327E-1,-7.3849064E-1,2.2978239E-1,-4.6537477E-1,-3.5923326E-1,-9.419402E-1,-2.401608E-2,3.908361E-1,-3.4086546E-1,-7.3742735E-1,-4.7007322E-1,-1.4022748E-1,-7.901599E-1,-1.0109974E0,2.062251E-1,-1.9169831E-1,4.7400305E-1,1.248243E-1,-5.1857746E-1,-1.4472894E-1,-8.06008E-1,-4.4979987E-1,-6.208463E-1,-4.0709865E-1,-9.275274E-2,-4.072009E-1,-8.006094E-1,-1.9390184E-1,-9.5896894E-1,-1.1088697E0,-8.5950345E-2,3.1168008E-1,-4.1463688E-1,-4.7741506E-2,4.182929E-1,6.7695814E-1,7.118708E-2,3.9636675E-1,-4.5243892E-1,-7.8340465E-1,-2.8141502E-1,1.6452638E-2,-7.445441E-1,-1.0458615E0,-1.823803E-1,-6.0214645E-1,-5.0473746E-2,2.6383331E-2,-3.644856E-2,-2.9150456E-2,-9.659751E-3,3.0780215E-2,-9.681458E-3,-4.249796E-2,-6.422936E-2,1.193359E-2,-2.8566824E-2,2.6216647E-2,-7.6965496E-2,-1.467088E-2,-7.840526E-2,-9.408165E-2,4.5817653E-3,-2.4418438E-2,3.3799607E-2,1.3777226E-2,-4.3826275E-2,-2.468644E-2,2.678161E-3,-1.895033E-2,4.5848384E-2,2.8650323E-2,7.889385E-2,4.7424514E-2,1.9164888E-2,2.0513093E-4,2.1052098E-2,5.6242824E-2,-5.8170218E-2,-3.1487975E-2,-7.679084E-2,-5.6253996E-2,-1.16651505E-2,-3.8437672E-2,4.9474854E-3,-3.8173717E-2,-5.0383314E-2,-7.419283E-2,-6.2283758E-2,-9.427134E-2,-8.600878E-3,-9.676291E-2,-3.9100707E-2,-7.6679535E-2],"categories":[],"categories_nodes":[],"categories_segments":[],"categories_sizes":[],"default_left":[0,0,0,0,0,0,0,0,0,0,0,0,0,0,0,0,0,0,0,0,0,0,0,0,0,0,0,0,0,0,0,0,0,0,0,0,0,0,0,0,0,0,0,0,0,0,0,0,0,0,0,0,0,0,0,0,0,0,0,0,0,0,0,0,0,0,0,0,0,0,0,0,0,0,0,0,0,0,0,0,0,0,0,0,0,0,0,0,0,0,0,0,0,0,0,0,0],"id":7,"left_children":[1,3,5,-1,7,9,11,13,15,17,19,21,23,25,27,29,31,33,35,37,39,41,43,45,47,49,51,53,55,57,59,61,63,65,67,69,71,73,75,77,79,81,83,85,87,89,91,93,95,-1,-1,-1,-1,-1,-1,-1,-1,-1,-1,-1,-1,-1,-1,-1,-1,-1,-1,-1,-1,-1,-1,-1,-1,-1,-1,-1,-1,-1,-1,-1,-1,-1,-1,-1,-1,-1,-1,-1,-1,-1,-1,-1,-1,-1,-1,-1,-1],"loss_changes":[1.2290596E4,8.7935645E2,5.656947E3,0E0,2.8000513E2,2.8910593E3,4.7491992E2,3.0766754E1,2.3980713E1,1.0601672E3,9.5723193E2,3.3542786E2,8.65E1,7.750641E0,5.3900223E0,4.4794617E0,7.192505E0,3.565637E2,5.099015E2,3.7243018E2,1.5009792E2,8.8089355E1,1.00840126E2,5.162256E1,3.4522568E1,2.5684967E0,1.0720749E0,4.924002E0,2.220088E0,1.6866455E0,1.3198426E0,2.3862915E0,3.6591797E0,9.64231E1,1.3133838E2,8.789136E1,1.4833232E2,2.4072217E2,1.8411304E2,9.946494E1,6.926361E1,6.505585E1,1.359314E1,6.678163E1,4.710941E1,5.8862183E1,2.468158E1,2.3706156E1,2.1395721E1,0E0,0E0,0E0,0E0,0E0,0E0,0E0,0E0,0E0,0E0,0E0,0E0,0E0,0E0,0E0,0E0,0E0,0E0,0E0,0E0,0E0,0E0,0E0,0E0,0E0,0E0,0E0,0E0,0E0,0E0,0E0,0E0,0E0,0E0,0E0,0E0,0E0,0E0,0E0,0E0,0E0,0E0,0E0,0E0,0E0,0E0,0E0,0E0],"parents":[2147483647,0,0,1,1,2,2,4,4,5,5,6,6,7,7,8,8,9,9,10,10,11,11,12,12,13,13,14,14,15,15,16,16,17,17,18,18,19,19,20,20,21,21,22,22,23,23,24,24,25,25,26,26,27,27,28,28,29,29,30,30,31,31,32,32,33,33,34,34,35,35,36,36,37,37,38,38,39,39,40,40,41,41,42,42,43,43,44,44,45,45,46,46,47,47,48,48],"right_children":[2,4,6,-1,8,10,12,14,16,18,20,22,24,26,28,30,32,34,36,38,40,42,44,46,48,50,52,54,56,58,60,62,64,66,68,70,72,74,76,78,80,82,84,86,88,90,92,94,96,-1,-1,-1,-1,-1,-1,-1,-1,-1,-1,-1,-1,-1,-1,-1,-1,-1,-1,-1,-1,-1,-1,-1,-1,-1,-1,-1,-1,-1,-1,-1,-1,-1,-1,-1,-1,-1,-1,-1,-1,-1,-1,-1,-1,-1,-1,-1,-1],"split_conditions":[4E0,3E0,2E1,-1.1019327E-1,2E0,8E0,4.6666668E1,4.87E2,3E0,3E0,1E1,1E1,1.3E1,1.6E2,4E0,5E0,7E0,5E0,6E0,2E0,1.3E1,6.030227E-1,1E0,4E0,6.4E1,3E0,2.75E2,3E0,6.51E2,4.07E2,8.078571E2,1E1,5.5E0,2E0,2E0,5E0,9.5E0,3E0,3E0,6E0,6.21E2,6E0,7E0,1.8E1,8.0966383E-1,5.937998E-1,7.75E1,8.9675343E-1,6.454972E-1,-5.0473746E-2,2.6383331E-2,-3.644856E-2,-2.9150456E-2,-9.659751E-3,3.0780215E-2,-9.681458E-3,-4.249796E-2,-6.422936E-2,1.193359E-2,-2.8566824E-2,2.6216647E-2,-7.6965496E-2,-1.467088E-2,-7.840526E-2,-9.408165E-2,4.5817653E-3,-2.4418438E-2,3.3799607E-2,1.3777226E-2,-4.3826275E-2,-2.468644E-2,2.678161E-3,-1.895033E-2,4.5848384E-2,2.8650323E-2,7.889385E-2,4.7424514E-2,1.9164888E-2,2.0513093E-4,2.1052098E-2,5.6242824E-2,-5.8170218E-2,-3.1487975E-2,-7.679084E-2,-5.6253996E-2,-1.16651505E-2,-3.8437672E-2,4.9474854E-3,-3.8173717E-2,-5.0383314E-2,-7.419283E-2,-6.2283758E-2,-9.427134E-2,-8.600878E-3,-9.676291E-2,-3.9100707E-2,-7.6679535E-2],"split_indices":[8,8,12,0,0,8,12,13,0,0,12,8,8,13,6,3,0,8,8,9,8,14,2,7,12,3,13,3,13,6,13,3,12,0,0,8,12,0,0,0,13,8,8,0,14,14,12,14,14,0,0,0,0,0,0,0,0,0,0,0,0,0,0,0,0,0,0,0,0,0,0,0,0,0,0,0,0,0,0,0,0,0,0,0,0,0,0,0,0,0,0,0,0,0,0,0,0],"split_type":[0,0,0,0,0,0,0,0,0,0,0,0,0,0,0,0,0,0,0,0,0,0,0,0,0,0,0,0,0,0,0,0,0,0,0,0,0,0,0,0,0,0,0,0,0,0,0,0,0,0,0,0,0,0,0,0,0,0,0,0,0,0,0,0,0,0,0,0,0,0,0,0,0,0,0,0,0,0,0,0,0,0,0,0,0,0,0,0,0,0,0,0,0,0,0,0,0],"sum_hessian":[9.369555E4,8.940823E3,8.475473E4,5.308536E3,3.6322869E3,7.072774E4,1.4026987E4,1.2691625E3,2.3631243E3,2.7458217E4,4.3269523E4,9.624452E3,4.402535E3,8.4191736E2,4.2724518E2,7.428538E2,1.6202705E3,1.1570609E4,1.5887606E4,3.2963047E4,1.0306478E4,5.048527E3,4.5759253E3,3.5534617E3,8.490737E2,2.4543677E2,5.964806E2,3.6388455E2,6.3360615E1,7.297226E2,1.3131218E1,1.0649475E3,5.55323E2,3.068673E3,8.501937E3,6.232999E3,9.654607E3,2.5866018E4,7.0970273E3,8.607515E3,1.6989624E3,4.0418223E3,1.00670465E3,2.4757124E3,2.100213E3,2.8318801E3,7.2158136E2,3.0895346E2,5.4012024E2,2.4319551E2,2.2412522E0,2.7478406E2,3.216965E2,3.444387E2,1.9445879E1,1.9754091E1,4.360652E1,7.281464E2,1.5761195E0,1.0242356E1,2.8888612E0,1.0604686E3,4.478868E0,1.9564552E2,3.5967746E2,1.8567072E3,1.2119661E3,4.7364487E3,3.7654875E3,2.7611833E3,3.4718154E3,6.754813E3,2.8997944E3,7.236568E3,1.8629451E4,1.5159509E3,5.581076E3,2.4916018E3,6.115913E3,1.18574E3,5.1322235E2,7.1103296E2,3.3307893E3,3.111986E2,6.9550604E2,1.4736005E3,1.0021119E3,1.9241532E3,1.7605972E2,1.7427252E3,1.089155E3,2.4144989E2,4.8013147E2,2.8899344E2,1.9960043E1,4.1154178E2,1.2857845E2],"tree_param":{"num_deleted":"0","num_feature":"15","num_nodes":"97","size_leaf_vector":"1"}},{"base_weights":[-5.4885994E-4,-1.0669029E0,1.0817261E-1,-1.0681823E-1,-6.859504E-1,2.814034E-1,-2.164618E-1,-3.1931186E-1,-8.854713E-1,-3.59482E-2,4.0382615E-1,-6.0750205E-2,-4.9086434E-1,-4.3355605E-1,-9.199143E-2,-8.044184E-1,-1.0280758E0,2.2505496E-1,-1.5789837E-1,2.465197E-1,4.9151507E-1,-3.43296E-1,7.5804085E-2,-3.8324603E-1,-7.2915286E-1,-5.2479994E-1,-3.4178203E-1,-3.3749226E-2,-4.068201E-1,-7.341772E-1,-8.720303E-1,-9.211514E-1,-1.0962913E0,4.420673E-2,3.349237E-1,-3.9086032E-1,-6.2058568E-2,4.3307996E-1,1.23237714E-1,4.4865093E-1,7.628591E-1,-6.698762E-1,-2.7189192E-1,-2.9894255E-2,2.0302302E-1,-5.1465845E-1,-1.6357198E-1,-8.512268E-1,-5.9095865E-1,-4.2472027E-2,6.273029E-2,-2.777126E-2,1.0716427E-2,-4.5384187E-3,2.8692527E-2,-3.4975767E-2,5.578794E-2,-6.0566723E-2,-4.075356E-2,-7.079729E-2,-5.27063E-2,-7.401661E-2,3.3880358E-3,-8.838574E-2,-5.717188E-2,-4.6718046E-3,1.7785486E-2,3.5803344E-2,1.2765116E-2,-2.3500217E-2,-4.1572236E-2,3.7184006E-3,-1.2993877E-2,3.2159895E-2,6.6298775E-2,1.0934419E-2,-3.299422E-2,5.5921633E-2,3.2892782E-2,8.237526E-2,5.295847E-2,-4.2397045E-2,-6.451361E-2,-8.5369665E-3,-3.0522032E-2,9.853987E-3,-1.1075292E-2,6.1353734E-3,2.8867887E-2,-3.5148647E-2,-5.7318438E-2,-2.1163074E-2,1.298309E-2,-6.097319E-2,-8.388422E-2,-4.2698216E-2,-8.167465E-2],"categories":[],"categories_nodes":[],"categories_segments":[],"categories_sizes":[],"default_left":[0,0,0,0,0,0,0,0,0,0,0,0,0,0,0,0,0,0,0,0,0,0,0,0,0,0,0,0,0,0,0,0,0,0,0,0,0,0,0,0,0,0,0,0,0,0,0,0,0,0,0,0,0,0,0,0,0,0,0,0,0,0,0,0,0,0,0,0,0,0,0,0,0,0,0,0,0,0,0,0,0,0,0,0,0,0,0,0,0,0,0,0,0,0,0,0,0],"id":8,"left_children":[1,3,5,-1,7,9,11,13,15,17,19,21,23,25,27,29,31,33,35,37,39,41,43,45,47,49,51,53,55,57,59,61,63,65,67,69,71,73,75,77,79,81,83,85,87,89,91,93,95,-1,-1,-1,-1,-1,-1,-1,-1,-1,-1,-1,-1,-1,-1,-1,-1,-1,-1,-1,-1,-1,-1,-1,-1,-1,-1,-1,-1,-1,-1,-1,-1,-1,-1,-1,-1,-1,-1,-1,-1,-1,-1,-1,-1,-1,-1,-1,-1],"loss_changes":[1.0768051E4,8.775039E2,4.7400312E3,0E0,2.5966064E2,2.1352466E3,1.2530734E3,3.2522514E1,2.5764648E1,4.870353E2,5.4695166E2,7.2196875E2,2.7198975E2,6.8060455E0,7.6993804E0,6.3480225E0,5.045105E0,9.680461E1,2.3281485E2,3.264751E2,2.9582715E2,1.4199255E2,1.696459E2,2.1111572E2,5.5203247E1,3.741562E0,1.1140633E0,3.2313223E0,2.5044909E0,3.3625793E0,1.4700317E0,1.3272705E0,8.4332275E-1,3.368798E1,5.978824E1,3.7862274E1,8.051046E1,6.912854E1,6.1620316E1,2.0614941E2,9.27854E1,2.0457184E1,9.059085E1,1.1452031E2,1.1412103E2,6.924597E1,9.0188034E1,2.9973999E1,3.764801E1,0E0,0E0,0E0,0E0,0E0,0E0,0E0,0E0,0E0,0E0,0E0,0E0,0E0,0E0,0E0,0E0,0E0,0E0,0E0,0E0,0E0,0E0,0E0,0E0,0E0,0E0,0E0,0E0,0E0,0E0,0E0,0E0,0E0,0E0,0E0,0E0,0E0,0E0,0E0,0E0,0E0,0E0,0E0,0E0,0E0,0E0,0E0,0E0],"parents":[2147483647,0,0,1,1,2,2,4,4,5,5,6,6,7,7,8,8,9,9,10,10,11,11,12,12,13,13,14,14,15,15,16,16,17,17,18,18,19,19,20,20,21,21,22,22,23,23,24,24,25,25,26,26,27,27,28,28,29,29,30,30,31,31,32,32,33,33,34,34,35,35,36,36,37,37,38,38,39,39,40,40,41,41,42,42,43,43,44,44,45,45,46,46,47,47,48,48],"right_children":[2,4,6,-1,8,10,12,14,16,18,20,22,24,26,28,30,32,34,36,38,40,42,44,46,48,50,52,54,56,58,60,62,64,66,68,70,72,74,76,78,80,82,84,86,88,90,92,94,96,-1,-1,-1,-1,-1,-1,-1,-1,-1,-1,-1,-1,-1,-1,-1,-1,-1,-1,-1,-1,-1,-1,-1,-1,-1,-1,-1,-1,-1,-1,-1,-1,-1,-1,-1,-1,-1,-1,-1,-1,-1,-1,-1,-1,-1,-1,-1,-1],"split_conditions":[4E0,3E0,1E1,-1.0681823E-1,2E0,7E0,2.5E1,4.87E2,5E0,2E0,9E0,8E0,5.5E1,2.27E2,4E0,3E0,5.5E0,5E0,5E0,3E0,3E0,5E0,1.1E1,1.1E1,1.1E1,5E0,4E0,3E0,2.442E3,2E0,4.2E1,7E0,8E1,4.51E2,8E0,4E0,4E0,3E0,5.0414944E-1,2E0,4E0,6E0,6E0,8E0,3E0,5.547002E-1,6.91E2,3E0,1.2110714E2,-4.2472027E-2,6.273029E-2,-2.777126E-2,1.0716427E-2,-4.5384187E-3,2.8692527E-2,-3.4975767E-2,5.578794E-2,-6.0566723E-2,-4.075356E-2,-7.079729E-2,-5.27063E-2,-7.401661E-2,3.3880358E-3,-8.838574E-2,-5.717188E-2,-4.6718046E-3,1.7785486E-2,3.5803344E-2,1.2765116E-2,-2.3500217E-2,-4.1572236E-2,3.7184006E-3,-1.2993877E-2,3.2159895E-2,6.6298775E-2,1.0934419E-2,-3.299422E-2,5.5921633E-2,3.2892782E-2,8.237526E-2,5.295847E-2,-4.2397045E-2,-6.451361E-2,-8.5369665E-3,-3.0522032E-2,9.853987E-3,-1.1075292E-2,6.1353734E-3,2.8867887E-2,-3.5148647E-2,-5.7318438E-2,-2.1163074E-2,1.298309E-2,-6.097319E-2,-8.388422E-2,-4.2698216E-2,-8.167465E-2],"split_indices":[8,8,12,0,0,8,12,13,0,0,8,8,12,13,6,0,12,8,8,0,9,8,8,8,8,9,9,9,13,9,6,9,0,13,6,0,0,9,14,0,0,0,0,0,9,14,13,7,12,0,0,0,0,0,0,0,0,0,0,0,0,0,0,0,0,0,0,0,0,0,0,0,0,0,0,0,0,0,0,0,0,0,0,0,0,0,0,0,0,0,0,0,0,0,0,0,0],"split_type":[0,0,0,0,0,0,0,0,0,0,0,0,0,0,0,0,0,0,0,0,0,0,0,0,0,0,0,0,0,0,0,0,0,0,0,0,0,0,0,0,0,0,0,0,0,0,0,0,0,0,0,0,0,0,0,0,0,0,0,0,0,0,0,0,0,0,0,0,0,0,0,0,0,0,0,0,0,0,0,0,0,0,0,0,0,0,0,0,0,0,0,0,0,0,0,0,0],"sum_hessian":[9.287761E4,8.592497E3,8.428512E4,5.040032E3,3.5524646E3,5.4958438E4,2.932668E4,1.2528446E3,2.2996199E3,1.5299322E4,3.9659113E4,1.87105E4,1.0616179E4,8.331979E2,4.1964673E2,1.4704773E3,8.291427E2,4.8717476E3,1.0427575E4,1.4196186E4,2.5462928E4,6.0959004E3,1.2614601E4,7.315077E3,3.301102E3,4.154396E2,4.1775824E2,3.5506766E2,6.457909E1,7.270317E2,7.434456E2,3.2859308E2,5.0054962E2,1.8416772E3,3.03007E3,3.0385535E3,7.3890215E3,5.6474673E3,8.548718E3,2.1991578E4,3.47135E3,1.0921881E3,5.0037124E3,6.890487E3,5.724114E3,4.5761875E3,2.7388896E3,1.7500421E3,1.55106E3,4.1410403E2,1.3355751E0,4.133723E2,4.385941E0,3.3623187E2,1.8835787E1,6.343788E1,1.1412017E0,6.576379E2,6.939379E1,6.979474E2,4.5498257E1,3.2725513E2,1.3379476E0,4.8775238E2,1.2797241E1,1.168954E3,6.7272327E2,1.8441699E3,1.1859001E3,1.7342433E3,1.3043103E3,3.5502148E3,3.8388064E3,5.238004E3,4.094635E2,8.340166E3,2.0855168E2,2.8618982E3,1.912968E4,9.498108E2,2.5215393E3,5.418496E2,5.503385E2,1.9969586E3,3.0067537E3,2.8588706E3,4.031616E3,3.180101E3,2.5440127E3,3.3350483E3,1.2411392E3,2.0911455E3,6.4774396E2,1.2091583E3,5.408838E2,1.3708385E3,1.802215E2],"tree_param":{"num_deleted":"0","num_feature":"15","num_nodes":"97","size_leaf_vector":"1"}},{"base_weights":[-8.725156E-4,-1.0220901E0,9.990975E-2,-1.03886604E-1,-6.408577E-1,2.0209663E-1,-3.8520265E-1,-5.293692E-1,-9.4752717E-1,-1.4049185E-2,3.4053406E-1,-2.7701232E-1,-6.4591575E-1,-4.2045438E-1,-5.85407E-1,-1.0030608E0,-8.231714E-1,8.407193E-2,-2.4770758E-1,4.0804154E-1,1.1767214E-1,-3.976058E-1,-5.844924E-2,-8.521248E-1,-5.590224E-1,-3.0008256E-1,-7.238549E-1,-1.0341258E0,-5.3138644E-1,-9.630776E-1,-9.210383E-2,-8.3061737E-1,3.6944006E-2,-6.537162E-2,2.1003334E-1,-4.3997577E-1,-1.16006196E-1,3.451695E-1,5.705004E-1,-1.872472E-1,1.733623E-1,-3.3660805E-1,-6.6276944E-1,-1.2071855E-1,3.3288312E-1,-1.0850317E0,-8.010322E-1,-4.7123224E-1,-7.722375E-1,-3.1886004E-2,-6.7525827E-3,-5.9944842E-2,-2.8726708E-3,-8.329409E-2,-2.0601409E-2,-5.1263E-2,-3.4465093E-2,-8.7059565E-2,-7.3882826E-2,-6.369224E-2,-8.262736E-2,-1.2883011E-2,2.0778337E-3,1.51771745E-2,4.0026408E-2,-5.879522E-2,-3.0063665E-2,-3.269542E-2,-4.532221E-3,1.833967E-2,3.317826E-2,3.564838E-2,5.692084E-2,-4.7226597E-2,-9.383169E-3,7.7693453E-3,3.7120394E-2,-4.3944128E-2,-2.1327533E-2,-6.535461E-2,-4.4411946E-2,-3.8442645E-2,-6.008055E-3,2.0243723E-2,6.712663E-2,-7.994922E-2,-9.909075E-2,-5.494937E-2,-7.0614696E-2,-5.3298425E-2,-2.8733606E-2,-5.135896E-2,-8.09092E-2],"categories":[],"categories_nodes":[],"categories_segments":[],"categories_sizes":[],"default_left":[0,0,0,0,0,0,0,0,0,0,0,0,0,0,0,0,0,0,0,0,0,0,0,0,0,0,0,0,0,0,0,0,0,0,0,0,0,0,0,0,0,0,0,0,0,0,0,0,0,0,0,0,0,0,0,0,0,0,0,0,0,0,0,0,0,0,0,0,0,0,0,0,0,0,0,0,0,0,0,0,0,0,0,0,0,0,0,0,0,0,0,0,0],"id":9,"left_children":[1,3,5,-1,7,9,11,13,15,17,19,21,23,25,27,29,31,33,35,37,39,41,43,45,47,49,51,53,55,57,-1,59,-1,61,63,65,67,69,71,73,75,77,79,81,83,85,87,89,91,-1,-1,-1,-1,-1,-1,-1,-1,-1,-1,-1,-1,-1,-1,-1,-1,-1,-1,-1,-1,-1,-1,-1,-1,-1,-1,-1,-1,-1,-1,-1,-1,-1,-1,-1,-1,-1,-1,-1,-1,-1,-1,-1,-1],"loss_changes":[9.4864375E3,8.7186914E2,4.158837E3,0E0,1.1856177E2,2.073551E3,4.1156177E2,1.5355225E1,5.5775146E0,6.203296E2,6.3547314E2,2.7193152E2,7.621826E1,3.1626755E1,4.0300903E1,2.663025E0,3.1756287E0,3.5871063E2,2.0257187E2,3.3095166E2,1.6682205E2,1.0732153E2,8.946917E1,1.4208313E1,5.6057434E1,1.326355E1,4.2979584E0,7.1762085E-1,1.629657E1,1.5058899E0,0E0,1.2022705E0,0E0,7.616945E1,6.0895996E1,6.1297913E1,8.2498276E1,1.884065E2,1.589707E2,4.271819E1,1.8401262E2,8.0381165E1,2.0160156E1,5.1944817E1,2.0158623E1,1.7244568E0,9.1154175E0,4.6473267E1,2.6683655E1,0E0,0E0,0E0,0E0,0E0,0E0,0E0,0E0,0E0,0E0,0E0,0E0,0E0,0E0,0E0,0E0,0E0,0E0,0E0,0E0,0E0,0E0,0E0,0E0,0E0,0E0,0E0,0E0,0E0,0E0,0E0,0E0,0E0,0E0,0E0,0E0,0E0,0E0,0E0,0E0,0E0,0E0,0E0,0E0],"parents":[2147483647,0,0,1,1,2,2,4,4,5,5,6,6,7,7,8,8,9,9,10,10,11,11,12,12,13,13,14,14,15,15,16,16,17,17,18,18,19,19,20,20,21,21,22,22,23,23,24,24,25,25,26,26,27,27,28,28,29,29,31,31,33,33,34,34,35,35,36,36,37,37,38,38,39,39,40,40,41,41,42,42,43,43,44,44,45,45,46,46,47,47,48,48],"right_children":[2,4,6,-1,8,10,12,14,16,18,20,22,24,26,28,30,32,34,36,38,40,42,44,46,48,50,52,54,56,58,-1,60,-1,62,64,66,68,70,72,74,76,78,80,82,84,86,88,90,92,-1,-1,-1,-1,-1,-1,-1,-1,-1,-1,-1,-1,-1,-1,-1,-1,-1,-1,-1,-1,-1,-1,-1,-1,-1,-1,-1,-1,-1,-1,-1,-1,-1,-1,-1,-1,-1,-1,-1,-1,-1,-1,-1,-1],"split_conditions":[4E0,3E0,1.8666666E1,-1.03886604E-1,5.5E0,8E0,4.6666668E1,2E0,4.5E0,5.5E0,9.5E0,1.1E1,9E0,1.33E0,2E0,3.2120803E-1,1.241E3,6E0,6E0,1.2E1,3.2E0,6.172134E-1,8.39E2,6E0,8.7666664E1,6.9790625E2,1.734E3,2E0,5E0,3E0,-9.210383E-2,2.55E1,3.6944006E-2,5E0,3E0,3E0,3E0,3.32E0,1E0,2.18E0,4E0,7E0,8E0,3.14E0,1.5E1,3E0,4.208127E-1,1E0,5E0,-3.1886004E-2,-6.7525827E-3,-5.9944842E-2,-2.8726708E-3,-8.329409E-2,-2.0601409E-2,-5.1263E-2,-3.4465093E-2,-8.7059565E-2,-7.3882826E-2,-6.369224E-2,-8.262736E-2,-1.2883011E-2,2.0778337E-3,1.51771745E-2,4.0026408E-2,-5.879522E-2,-3.0063665E-2,-3.269542E-2,-4.532221E-3,1.833967E-2,3.317826E-2,3.564838E-2,5.692084E-2,-4.7226597E-2,-9.383169E-3,7.7693453E-3,3.7120394E-2,-4.3944128E-2,-2.1327533E-2,-6.535461E-2,-4.4411946E-2,-3.8442645E-2,-6.008055E-3,2.0243723E-2,6.712663E-2,-7.994922E-2,-9.909075E-2,-5.494937E-2,-7.0614696E-2,-5.3298425E-2,-2.8733606E-2,-5.135896E-2,-8.09092E-2],"split_indices":[8,8,12,0,12,8,12,12,1,12,12,8,8,1,1,14,13,8,8,8,1,14,13,8,12,13,13,5,1,1,0,12,0,8,9,1,1,1,9,1,9,8,8,1,8,7,14,2,7,0,0,0,0,0,0,0,0,0,0,0,0,0,0,0,0,0,0,0,0,0,0,0,0,0,0,0,0,0,0,0,0,0,0,0,0,0,0,0,0,0,0,0,0],"split_type":[0,0,0,0,0,0,0,0,0,0,0,0,0,0,0,0,0,0,0,0,0,0,0,0,0,0,0,0,0,0,0,0,0,0,0,0,0,0,0,0,0,0,0,0,0,0,0,0,0,0,0,0,0,0,0,0,0,0,0,0,0,0,0,0,0,0,0,0,0,0,0,0,0,0,0,0,0,0,0,0,0,0,0,0,0,0,0,0,0,0,0,0,0],"sum_hessian":[9.217038E4,8.278271E3,8.389211E4,4.79688E3,3.481391E3,6.929582E4,1.4596288E4,2.5551885E3,9.2620264E2,2.705503E4,4.224079E4,1.0317012E4,4.2792754E3,8.70939E2,1.6842495E3,6.353902E2,2.908124E2,1.9054174E4,8.000856E3,3.2419664E4,9.821126E3,6.6480767E3,3.6689355E3,1.2660264E3,3.0132493E3,6.249743E2,2.4596472E2,1.7902713E2,1.5052224E3,5.063202E2,1.2907005E2,2.894885E2,1.3239049E0,8.714989E3,1.0339185E4,3.2515881E3,4.749268E3,2.337615E4,9.043513E3,1.5163455E3,8.304781E3,5.406618E3,1.2414586E3,3.1658696E3,5.0306583E2,2.241223E2,1.041904E3,2.1366887E3,8.765605E2,4.2846094E2,1.9651337E2,2.3710217E2,8.862542E0,1.7707883E2,1.9482942E0,7.1839514E2,7.868273E2,1.1518678E2,3.911334E2,2.5155408E2,3.793442E1,4.256428E3,4.458561E3,9.664401E3,6.747839E2,5.7919855E2,2.6723894E3,7.9972736E2,3.9495405E3,8.768025E3,1.4608126E4,4.7979927E3,4.2455205E3,2.2315001E2,1.2931954E3,6.5799653E3,1.7248154E3,1.3372802E3,4.069338E3,5.076588E2,7.337998E2,3.551401E2,2.8107295E3,4.35828E2,6.7237816E1,1.4869759E2,7.542472E1,4.3837747E2,6.0352655E2,7.779834E2,1.3587053E3,5.698523E2,3.0670816E2],"tree_param":{"num_deleted":"0","num_feature":"15","num_nodes":"93","size_leaf_vector":"1"}},{"base_weights":[-2.1176825E-3,-9.83039E-1,9.140666E-2,-1.01313464E-1,-6.081615E-1,2.0245917E-1,-2.8702685E-1,-2.5617668E-1,-8.054313E-1,4.642496E-2,3.773963E-1,-1.9455938E-1,-6.1284673E-1,-2.6574504E-1,4.8139107E-1,-7.1107197E-1,-9.1183597E-1,3.0909595E-1,-3.392475E-2,5.383267E-1,3.125931E-1,-4.422455E-1,-9.870547E-2,-6.571459E-1,-2.3576413E-1,-2.2246273E-1,-3.2070524E-1,5.994507E-1,-2.426184E-2,-7.992568E-1,-6.659531E-1,-8.7699044E-1,-8.802165E-2,1.4576708E-1,4.339352E-1,-2.651673E-1,6.633841E-2,4.6185702E-1,8.3385676E-1,-2.7084516E-2,3.622099E-1,-3.683436E-1,-6.8170106E-1,-4.57267E-2,-4.0547082E-1,-5.983787E-1,-8.8091975E-1,-1.703832E-1,-9.868726E-1,-1.9462658E-2,1.6744068E-4,-2.5224563E-2,-7.032917E-2,5.9533533E-2,-1.1279476E-2,-5.2168936E-2,-7.138121E-2,-4.8500273E-2,-6.1925814E-2,-7.374408E-2,-6.073561E-2,9.174251E-3,3.7474647E-2,3.2545567E-2,7.003322E-2,-3.0398106E-2,-1.3442965E-2,-1.1988649E-2,1.0729083E-2,4.7479987E-2,3.069738E-2,5.7972174E-2,8.3749264E-2,-3.1576995E-2,4.3227416E-3,2.3727216E-2,4.5610018E-2,-5.477584E-2,-2.4736037E-2,-7.687526E-2,-4.9579576E-2,-7.961237E-3,1.5665488E-2,-6.3162684E-2,-2.7847797E-2,-3.900475E-2,-6.362465E-2,-5.183348E-2,-7.9772145E-2,-3.0278992E-3,-4.6808567E-2,-9.85881E-2,-5.6378014E-2],"categories":[],"categories_nodes":[],"categories_segments":[],"categories_sizes":[],"default_left":[0,0,0,0,0,0,0,0,0,0,0,0,0,0,0,0,0,0,0,0,0,0,0,0,0,0,0,0,0,0,0,0,0,0,0,0,0,0,0,0,0,0,0,0,0,0,0,0,0,0,0,0,0,0,0,0,0,0,0,0,0,0,0,0,0,0,0,0,0,0,0,0,0,0,0,0,0,0,0,0,0,0,0,0,0,0,0,0,0,0,0,0,0],"id":10,"left_children":[1,3,5,-1,7,9,11,13,15,17,19,21,23,25,27,29,31,33,35,37,39,41,43,45,47,49,51,53,-1,55,57,59,-1,61,63,65,67,69,71,73,75,77,79,81,83,85,87,89,91,-1,-1,-1,-1,-1,-1,-1,-1,-1,-1,-1,-1,-1,-1,-1,-1,-1,-1,-1,-1,-1,-1,-1,-1,-1,-1,-1,-1,-1,-1,-1,-1,-1,-1,-1,-1,-1,-1,-1,-1,-1,-1,-1,-1],"loss_changes":[8.389449E3,8.4484424E2,3.5087266E3,0E0,2.3786975E2,1.7618752E3,5.705552E2,8.829025E0,2.1408081E1,7.200896E2,3.1718262E2,3.5028815E2,6.97843E1,2.8255005E0,1.6774561E0,4.118286E0,5.79126E0,1.6289148E2,6.057763E2,1.9700586E2,3.6568042E2,7.260248E1,1.7290457E2,4.8736816E1,2.152376E1,3.2009354E0,1.3332405E0,1.644731E0,0E0,4.764038E0,4.560364E0,3.909851E0,0E0,3.4692406E1,5.3862976E1,8.805768E1,2.6707794E2,7.117346E1,4.0978394E1,8.2515114E1,2.5811987E2,5.8690704E1,1.6181793E1,1.1791617E2,3.424991E1,6.442993E1,2.0398438E1,2.2379185E1,1.5669022E0,0E0,0E0,0E0,0E0,0E0,0E0,0E0,0E0,0E0,0E0,0E0,0E0,0E0,0E0,0E0,0E0,0E0,0E0,0E0,0E0,0E0,0E0,0E0,0E0,0E0,0E0,0E0,0E0,0E0,0E0,0E0,0E0,0E0,0E0,0E0,0E0,0E0,0E0,0E0,0E0,0E0,0E0,0E0,0E0],"parents":[2147483647,0,0,1,1,2,2,4,4,5,5,6,6,7,7,8,8,9,9,10,10,11,11,12,12,13,13,14,14,15,15,16,16,17,17,18,18,19,19,20,20,21,21,22,22,23,23,24,24,25,25,26,26,27,27,29,29,30,30,31,31,33,33,34,34,35,35,36,36,37,37,38,38,39,39,40,40,41,41,42,42,43,43,44,44,45,45,46,46,47,47,48,48],"right_children":[2,4,6,-1,8,10,12,14,16,18,20,22,24,26,28,30,32,34,36,38,40,42,44,46,48,50,52,54,-1,56,58,60,-1,62,64,66,68,70,72,74,76,78,80,82,84,86,88,90,92,-1,-1,-1,-1,-1,-1,-1,-1,-1,-1,-1,-1,-1,-1,-1,-1,-1,-1,-1,-1,-1,-1,-1,-1,-1,-1,-1,-1,-1,-1,-1,-1,-1,-1,-1,-1,-1,-1,-1,-1,-1,-1,-1,-1],"split_conditions":[4E0,3E0,1.5E1,-1.01313464E-1,2E0,9E0,4.7E1,4E0,4E0,2E0,4E0,8E0,1.4E1,4.5E0,2.5E0,2.88E0,2.738613E-1,6E0,6E0,2E0,2.75E0,3.3577538E-1,6.3828474E-1,4E0,8.0966383E-1,2E0,3E0,2E0,-2.426184E-2,2E0,6E0,4.5E0,-8.802165E-2,2E0,3E0,5E0,3E0,2E0,5E0,3E0,1.3E1,5E0,2.91E0,1.3E1,2.73E0,6.1237246E-1,7.626667E1,1.0175E2,3.43E0,-1.9462658E-2,1.6744068E-4,-2.5224563E-2,-7.032917E-2,5.9533533E-2,-1.1279476E-2,-5.2168936E-2,-7.138121E-2,-4.8500273E-2,-6.1925814E-2,-7.374408E-2,-6.073561E-2,9.174251E-3,3.7474647E-2,3.2545567E-2,7.003322E-2,-3.0398106E-2,-1.3442965E-2,-1.1988649E-2,1.0729083E-2,4.7479987E-2,3.069738E-2,5.7972174E-2,8.3749264E-2,-3.1576995E-2,4.3227416E-3,2.3727216E-2,4.5610018E-2,-5.477584E-2,-2.4736037E-2,-7.687526E-2,-4.9579576E-2,-7.961237E-3,1.5665488E-2,-6.3162684E-2,-2.7847797E-2,-3.900475E-2,-6.362465E-2,-5.183348E-2,-7.9772145E-2,-3.0278992E-3,-4.6808567E-2,-9.85881E-2,-5.6378014E-2],"split_indices":[8,8,12,0,0,8,12,3,0,0,0,8,8,12,12,1,14,8,8,9,1,14,14,7,14,9,3,10,0,12,12,1,0,3,3,8,1,0,3,3,8,8,1,8,1,14,12,12,1,0,0,0,0,0,0,0,0,0,0,0,0,0,0,0,0,0,0,0,0,0,0,0,0,0,0,0,0,0,0,0,0,0,0,0,0,0,0,0,0,0,0,0,0],"split_type":[0,0,0,0,0,0,0,0,0,0,0,0,0,0,0,0,0,0,0,0,0,0,0,0,0,0,0,0,0,0,0,0,0,0,0,0,0,0,0,0,0,0,0,0,0,0,0,0,0,0,0,0,0,0,0,0,0,0,0,0,0,0,0,0,0,0,0,0,0,0,0,0,0,0,0,0,0,0,0,0,0,0,0,0,0,0,0,0,0,0,0,0,0],"sum_hessian":[9.14461E4,7.9590317E3,8.348707E4,4.5313164E3,3.427715E3,6.454624E4,1.8940834E4,1.2319205E3,2.1957947E3,3.4117016E4,3.0429223E4,1.4754978E4,4.185856E3,1.2167751E3,1.5145348E1,1.1678401E3,1.0279545E3,7.990956E3,2.6126059E4,8.73347E3,2.1695752E4,4.115898E3,1.0639079E4,3.745139E3,4.4071683E2,6.835293E2,5.332459E2,1.3369787E1,1.7755611E0,3.89618E2,7.782221E2,8.7230176E2,1.5565276E2,3.4627546E3,4.5282017E3,7.9012705E3,1.8224787E4,6.940221E3,1.7932484E3,2.7652495E3,1.8930504E4,3.147148E3,9.6875006E2,9.073265E3,1.5658152E3,2.9690776E3,7.760612E2,4.0655472E2,3.4162094E1,6.254545E2,5.8074734E1,5.2969E2,3.5558908E0,1.1179704E1,2.190083E0,1.539967E2,2.356213E2,5.0563605E2,2.7258606E2,6.269701E2,2.4533167E2,3.1596748E3,3.0308E2,4.2679844E3,2.6021725E2,3.6197607E3,4.28151E3,4.349396E3,1.3875392E4,2.5826353E3,4.357586E3,1.1883914E3,6.04857E2,4.991682E2,2.2660813E3,1.4391014E4,4.5394897E3,4.9402872E2,2.6531194E3,1.7327637E2,7.954737E2,7.421245E3,1.6520194E3,2.0185005E2,1.3639651E3,1.902147E3,1.0669308E3,2.6047726E2,5.15584E2,3.089227E2,9.763201E1,1.6467234E1,1.769486E1],"tree_param":{"num_deleted":"0","num_feature":"15","num_nodes":"93","size_leaf_vector":"1"}},{"base_weights":[-2.6501345E-3,6.1638176E-2,-3.6010376E-1,-6.00117E-2,2.1403222E-1,-2.8502184E-1,-6.14216E-1,-2.0027775E-1,3.6315255E-2,4.8500645E-1,1.6057107E-1,-3.841073E-1,-1.1453429E-1,-5.8212596E-1,-1.0168808E0,-1.3309625E-1,-4.213913E-1,3.075461E-1,-6.624598E-3,3.859911E-1,6.940902E-1,-2.1410248E-1,2.101003E-1,-7.4666125E-1,-3.4831885E-1,-2.2634923E-1,2.5690451E-2,-7.2125816E-1,-4.5569775E-1,-7.552762E-1,-1.147745E0,-2.1744323E-1,1.1634218E-2,-6.6501355E-1,-3.368652E-1,-2.5508862E-2,6.3662887E-1,4.720678E-2,-1.7030238E-1,2.8181309E-1,5.171703E-1,3.5149595E-1,7.66901E-1,1.0787824E-2,-3.4192848E-1,2.8731784E-1,5.0180107E-2,-6.014222E-1,-8.7573445E-1,-4.0780786E-1,-1.4831698E-1,-3.8636062E-2,-3.1009194E-1,-3.9313605E-1,9.287744E-2,-6.4132726E-1,-8.496704E-1,-2.4222368E-1,-6.757452E-1,-9.4244325E-1,-3.1034857E-2,-7.689475E-2,-9.586267E-2,-2.2842504E-2,-1.0894148E-2,-1.5883795E-3,1.5077748E-2,-3.468718E-2,-6.678496E-2,-1.4800597E-2,-3.9652433E-2,-1.21442955E-2,5.181289E-3,5.1496293E-2,-2.676781E-2,-4.2599086E-3,1.1863478E-2,-1.8507965E-2,-5.142232E-3,3.6919978E-2,7.96241E-3,3.243006E-2,5.424958E-2,-3.4132495E-3,3.8645294E-2,4.9626894E-2,7.227496E-2,-1.0392765E-2,4.7248982E-2,-5.0968155E-2,-1.6744679E-2,2.0670747E-2,4.736059E-2,1.304298E-3,2.8199818E-2,-5.3619966E-2,1.4202354E-2,-7.808895E-2,-5.8281552E-2,-2.1479044E-2,-3.8255278E-2,2.2668194E-2,-2.124834E-2,-4.879616E-3,5.397017E-2,-1.8088447E-2,-3.3109672E-2,-1.3343068E-2,-4.7409233E-2,1.6924124E-2,-1.0802938E-2,-7.691255E-2,-4.843222E-2,-6.462262E-2,-8.092557E-2,-3.0094134E-2,4.4623666E-2,-7.443064E-2,-4.2561315E-2,-8.611258E-2,-5.6262057E-2,5.298823E-2,-2.427339E-2],"categories":[],"categories_nodes":[],"categories_segments":[],"categories_sizes":[],"default_left":[0,0,0,0,0,0,0,0,0,0,0,0,0,0,0,0,0,0,0,0,0,0,0,0,0,0,0,0,0,0,0,0,0,0,0,0,0,0,0,0,0,0,0,0,0,0,0,0,0,0,0,0,0,0,0,0,0,0,0,0,0,0,0,0,0,0,0,0,0,0,0,0,0,0,0,0,0,0,0,0,0,0,0,0,0,0,0,0,0,0,0,0,0,0,0,0,0,0,0,0,0,0,0,0,0,0,0,0,0,0,0,0,0,0,0,0,0,0,0,0,0,0,0],"id":11,"left_children":[1,3,5,7,9,11,13,15,17,19,21,23,25,27,29,31,33,35,37,39,41,43,45,47,49,51,53,55,57,59,61,63,65,67,69,71,73,75,77,79,81,83,85,87,89,91,93,95,97,99,101,103,105,107,109,111,113,115,117,119,121,-1,-1,-1,-1,-1,-1,-1,-1,-1,-1,-1,-1,-1,-1,-1,-1,-1,-1,-1,-1,-1,-1,-1,-1,-1,-1,-1,-1,-1,-1,-1,-1,-1,-1,-1,-1,-1,-1,-1,-1,-1,-1,-1,-1,-1,-1,-1,-1,-1,-1,-1,-1,-1,-1,-1,-1,-1,-1,-1,-1,-1,-1],"loss_changes":[2.0853833E3,1.425906E3,2.6374988E2,5.7792163E2,4.9453784E2,1.8037048E2,4.0164673E1,2.5863287E2,2.953459E2,1.16197266E2,5.29268E2,8.737396E1,6.1577965E1,5.109955E1,7.057617E0,1.6307031E2,8.333313E1,3.7989645E2,1.9291429E2,5.205786E1,4.479767E1,9.573778E1,3.1103674E2,1.0832275E1,7.31001E1,3.4334137E1,4.908594E1,1.3724121E1,7.191803E1,1.082962E1,2.8483582E-1,4.6659332E1,2.7396935E1,4.0668976E1,7.259845E1,1.9660522E1,1.2195007E1,1.67318E2,3.505774E1,6.97623E1,3.0127686E1,1.6538902E1,2.9240051E1,9.8614265E1,8.2988434E1,1.4959741E2,8.40084E1,1.5575676E1,3.9971619E0,4.6338806E1,7.1526054E1,1.0808873E1,1.3074081E1,1.0789703E1,4.0678665E1,9.317474E0,2.7789612E0,8.384532E1,2.7139008E1,1.2814445E0,3.5032866E0,0E0,0E0,0E0,0E0,0E0,0E0,0E0,0E0,0E0,0E0,0E0,0E0,0E0,0E0,0E0,0E0,0E0,0E0,0E0,0E0,0E0,0E0,0E0,0E0,0E0,0E0,0E0,0E0,0E0,0E0,0E0,0E0,0E0,0E0,0E0,0E0,0E0,0E0,0E0,0E0,0E0,0E0,0E0,0E0,0E0,0E0,0E0,0E0,0E0,0E0,0E0,0E0,0E0,0E0,0E0,0E0,0E0,0E0,0E0,0E0,0E0,0E0],"parents":[2147483647,0,0,1,1,2,2,3,3,4,4,5,5,6,6,7,7,8,8,9,9,10,10,11,11,12,12,13,13,14,14,15,15,16,16,17,17,18,18,19,19,20,20,21,21,22,22,23,23,24,24,25,25,26,26,27,27,28,28,29,29,30,30,31,31,32,32,33,33,34,34,35,35,36,36,37,37,38,38,39,39,40,40,41,41,42,42,43,43,44,44,45,45,46,46,47,47,48,48,49,49,50,50,51,51,52,52,53,53,54,54,55,55,56,56,57,57,58,58,59,59,60,60],"right_children":[2,4,6,8,10,12,14,16,18,20,22,24,26,28,30,32,34,36,38,40,42,44,46,48,50,52,54,56,58,60,62,64,66,68,70,72,74,76,78,80,82,84,86,88,90,92,94,96,98,100,102,104,106,108,110,112,114,116,118,120,122,-1,-1,-1,-1,-1,-1,-1,-1,-1,-1,-1,-1,-1,-1,-1,-1,-1,-1,-1,-1,-1,-1,-1,-1,-1,-1,-1,-1,-1,-1,-1,-1,-1,-1,-1,-1,-1,-1,-1,-1,-1,-1,-1,-1,-1,-1,-1,-1,-1,-1,-1,-1,-1,-1,-1,-1,-1,-1,-1,-1,-1,-1],"split_conditions":[2E1,3E0,5.5E1,3.44E0,5E0,1E0,1.2567143E2,4E0,5E0,6E0,2.62E0,2.95E0,2E0,2E0,5E0,1E0,2.25E0,4E0,1E1,3.32E0,1E0,2.5E0,9.5E0,1.8E1,8E0,2.5E1,3.14E0,7.3E1,3E0,1.4E1,1.3116441E2,2E0,1E0,2.5E0,5.5E0,2E0,2.1E1,2.618E2,1E0,3E0,4.51E2,2E0,2.67E0,3E0,2E0,4E0,8E0,2.5E1,2.67E0,1E1,1.2E1,1.4E1,3.4833332E1,3.3E1,3E0,3.18E0,9.9333336E1,2E0,8E0,2E0,1.99E2,-7.689475E-2,-9.586267E-2,-2.2842504E-2,-1.0894148E-2,-1.5883795E-3,1.5077748E-2,-3.468718E-2,-6.678496E-2,-1.4800597E-2,-3.9652433E-2,-1.21442955E-2,5.181289E-3,5.1496293E-2,-2.676781E-2,-4.2599086E-3,1.1863478E-2,-1.8507965E-2,-5.142232E-3,3.6919978E-2,7.96241E-3,3.243006E-2,5.424958E-2,-3.4132495E-3,3.8645294E-2,4.9626894E-2,7.227496E-2,-1.0392765E-2,4.7248982E-2,-5.0968155E-2,-1.6744679E-2,2.0670747E-2,4.736059E-2,1.304298E-3,2.8199818E-2,-5.3619966E-2,1.4202354E-2,-7.808895E-2,-5.8281552E-2,-2.1479044E-2,-3.8255278E-2,2.2668194E-2,-2.124834E-2,-4.879616E-3,5.397017E-2,-1.8088447E-2,-3.3109672E-2,-1.3343068E-2,-4.7409233E-2,1.6924124E-2,-1.0802938E-2,-7.691255E-2,-4.843222E-2,-6.462262E-2,-8.092557E-2,-3.0094134E-2,4.4623666E-2,-7.443064E-2,-4.2561315E-2,-8.611258E-2,-5.6262057E-2,5.298823E-2,-2.427339E-2],"split_indices":[12,3,12,1,0,2,12,0,12,3,1,1,10,2,7,3,1,12,12,1,9,12,12,0,9,12,1,12,7,2,12,1,10,12,12,12,0,13,9,0,13,12,1,9,1,9,9,3,1,0,0,9,12,12,7,1,12,7,2,7,0,0,0,0,0,0,0,0,0,0,0,0,0,0,0,0,0,0,0,0,0,0,0,0,0,0,0,0,0,0,0,0,0,0,0,0,0,0,0,0,0,0,0,0,0,0,0,0,0,0,0,0,0,0,0,0,0,0,0,0,0,0,0],"split_type":[0,0,0,0,0,0,0,0,0,0,0,0,0,0,0,0,0,0,0,0,0,0,0,0,0,0,0,0,0,0,0,0,0,0,0,0,0,0,0,0,0,0,0,0,0,0,0,0,0,0,0,0,0,0,0,0,0,0,0,0,0,0,0,0,0,0,0,0,0,0,0,0,0,0,0,0,0,0,0,0,0,0,0,0,0,0,0,0,0,0,0,0,0,0,0,0,0,0,0,0,0,0,0,0,0,0,0,0,0,0,0,0,0,0,0,0,0,0,0,0,0,0,0],"sum_hessian":[9.074544E4,7.691334E4,1.3832098E4,4.2771348E4,3.4141996E4,1.067894E4,3.153157E3,1.7413574E4,2.5357773E4,5.6246597E3,2.8517336E4,6.7529497E3,3.9259907E3,2.9226814E3,2.304755E2,1.3356911E4,4.0566624E3,3.4649775E3,2.1892795E4,3.818966E3,1.8056937E3,3.3292495E3,2.5188086E4,6.0492346E2,6.1480264E3,2.1839216E3,1.7420691E3,1.3891926E3,1.5334889E3,7.910729E1,1.513682E2,8.43854E3,4.918371E3,1.0431666E3,3.0134958E3,1.7225538E3,1.7424237E3,1.6475078E4,5.4177163E3,2.1303018E3,1.6886642E3,3.175174E2,1.4881764E3,1.2068672E3,2.1223826E3,1.6985723E4,8.202363E3,2.8730002E2,3.176234E2,4.7377734E3,1.4102529E3,6.741792E2,1.5097424E3,2.4015471E2,1.5019144E3,8.5992316E2,5.292695E2,7.7943665E2,7.540522E2,6.262239E1,1.6484905E1,3.653169E1,1.148365E2,4.59019E3,3.8483506E3,4.175703E3,7.426676E2,4.429752E2,6.001914E2,1.5414797E3,1.472016E3,7.177453E2,1.00480853E3,1.7301577E3,1.2266029E1,8.263569E3,8.21151E3,3.4373584E3,1.980358E3,1.0720197E3,1.0582822E3,9.985771E2,6.900871E2,7.963137E1,2.3788602E2,7.204024E2,7.67774E2,9.718248E2,2.3504236E2,6.5677924E2,1.4656031E3,1.5514322E4,1.4714009E3,7.376805E3,8.255584E2,2.6410364E2,2.3196383E1,1.855067E2,1.3211671E2,1.5917672E3,3.1460063E3,3.0100494E2,1.109248E3,6.545743E2,1.9604895E1,8.3620026E2,6.735422E2,1.1336098E2,1.26793724E2,9.8769617E2,5.1421826E2,8.41755E1,7.757477E2,4.2523822E2,1.0403124E2,6.6810144E2,1.1133522E2,2.7008368E2,4.839685E2,3.7895493E1,2.4726898E1,4.245554E0,1.2239351E1],"tree_param":{"num_deleted":"0","num_feature":"15","num_nodes":"123","size_leaf_vector":"1"}},{"base_weights":[-2.3863479E-3,5.882283E-2,-3.4013188E-1,-5.366063E-2,2.002016E-1,-2.5555214E-1,-5.4050356E-1,-1.8342003E-1,3.5538375E-2,4.5335335E-1,1.5034446E-1,-3.019557E-1,6.4326655E-3,-4.7121364E-1,-7.0167613E-1,-1.0057757E-1,-3.2932842E-1,8.860603E-2,-1.6035643E-1,3.2018194E-1,6.2005115E-1,-1.5784551E-1,2.0301917E-1,-6.025251E-1,-2.632369E-1,1.2260602E-1,-2.6780838E-1,-3.1542617E-1,-6.4464146E-1,-7.271018E-1,-2.2606337E-1,-1.7998599E-1,5.539677E-2,-5.373522E-1,-2.4937485E-1,2.895995E-1,4.652688E-2,-8.949474E-2,-2.5295785E-1,2.4818794E-1,5.593177E-1,4.8276925E-1,7.17354E-1,-9.681166E-2,-5.7683235E-1,3.0497518E-1,8.57345E-2,-3.7127692E-1,-7.05468E-1,-3.3385918E-1,-3.2704268E-2,-3.352361E-1,1.9057831E-1,-7.4188955E-2,-4.0433154E-1,-1.857991E-1,-5.9487516E-1,-5.307078E-1,-9.327082E-1,-6.0768867E-1,-8.1841075E-1,7.834828E-1,-3.5792723E-1,-1.7039184E-2,-1.305796E-3,6.7161996E-4,2.2096371E-2,-2.2638492E-2,-5.242042E-2,-1.1211605E-2,-3.1224204E-2,1.05612025E-5,4.5859206E-2,-5.6524216E-3,9.623175E-3,-1.4227578E-2,2.1714114E-3,-2.738443E-2,-1.6674884E-2,3.1948745E-2,1.14557E-2,5.39996E-2,2.4077494E-2,6.463688E-2,3.0760532E-2,3.9742433E-2,6.560891E-2,-2.4931144E-2,7.206917E-4,-7.226339E-2,-3.683944E-2,2.088783E-2,5.6589745E-2,8.709277E-3,-2.8975504E-2,-5.4254234E-2,-1.6939927E-2,-8.0556884E-2,-5.1421344E-2,-2.4259867E-2,-4.6448138E-2,1.4507083E-2,-1.9062942E-2,7.9331305E-3,-4.2077336E-2,2.7431216E-2,-2.036985E-3,-1.3748481E-2,5.2046575E-2,-1.9249065E-2,-5.0881073E-2,-2.8804379E-2,1.9987492E-2,-6.825744E-2,-3.512882E-2,-4.5427103E-2,2.5633939E-2,-4.6724033E-2,-8.0543384E-2,-5.9620004E-2,-2.8484935E-2,-7.395327E-2,-5.667977E-2,8.7129846E-2,-3.0634876E-2,-4.999635E-2,-1.778843E-2],"categories":[],"categories_nodes":[],"categories_segments":[],"categories_sizes":[],"default_left":[0,0,0,0,0,0,0,0,0,0,0,0,0,0,0,0,0,0,0,0,0,0,0,0,0,0,0,0,0,0,0,0,0,0,0,0,0,0,0,0,0,0,0,0,0,0,0,0,0,0,0,0,0,0,0,0,0,0,0,0,0,0,0,0,0,0,0,0,0,0,0,0,0,0,0,0,0,0,0,0,0,0,0,0,0,0,0,0,0,0,0,0,0,0,0,0,0,0,0,0,0,0,0,0,0,0,0,0,0,0,0,0,0,0,0,0,0,0,0,0,0,0,0,0,0,0,0],"id":12,"left_children":[1,3,5,7,9,11,13,15,17,19,21,23,25,27,29,31,33,35,37,39,41,43,45,47,49,51,53,55,57,59,61,63,65,67,69,71,73,75,77,79,81,83,85,87,89,91,93,95,97,99,101,103,105,107,109,111,113,115,117,119,121,123,125,-1,-1,-1,-1,-1,-1,-1,-1,-1,-1,-1,-1,-1,-1,-1,-1,-1,-1,-1,-1,-1,-1,-1,-1,-1,-1,-1,-1,-1,-1,-1,-1,-1,-1,-1,-1,-1,-1,-1,-1,-1,-1,-1,-1,-1,-1,-1,-1,-1,-1,-1,-1,-1,-1,-1,-1,-1,-1,-1,-1,-1,-1,-1,-1],"loss_changes":[1.872221E3,1.2192529E3,2.3533752E2,4.9421478E2,4.2869617E2,1.1880322E2,4.571692E1,2.1022223E2,2.630747E2,1.2387659E2,4.6079718E2,9.645514E1,4.6911453E1,7.77879E1,1.4802185E1,1.3744812E2,1.04632935E2,1.6839146E2,3.537358E1,5.3388E1,3.279541E1,1.0590535E2,2.8983813E2,2.22724E1,1.1975348E2,3.2250736E1,1.1551998E1,5.504512E1,4.430591E1,1.2307678E1,8.834473E0,3.97153E1,3.8856956E1,5.2238678E1,7.001718E1,2.8299634E2,1.4233379E2,3.1510555E1,9.228439E0,3.7899216E1,2.1273117E1,3.2671402E1,3.245514E1,8.2249695E1,1.9586197E1,2.2876624E2,1.1685417E2,1.4235725E1,1.1714203E1,4.2355164E1,7.600082E1,1.1159656E1,2.966322E1,1.3024221E1,9.5853E0,7.916046E1,1.9022614E1,3.1168365E1,9.370819E0,1.7483566E1,7.065613E0,3.1753392E0,1.943337E0,0E0,0E0,0E0,0E0,0E0,0E0,0E0,0E0,0E0,0E0,0E0,0E0,0E0,0E0,0E0,0E0,0E0,0E0,0E0,0E0,0E0,0E0,0E0,0E0,0E0,0E0,0E0,0E0,0E0,0E0,0E0,0E0,0E0,0E0,0E0,0E0,0E0,0E0,0E0,0E0,0E0,0E0,0E0,0E0,0E0,0E0,0E0,0E0,0E0,0E0,0E0,0E0,0E0,0E0,0E0,0E0,0E0,0E0,0E0,0E0,0E0,0E0,0E0,0E0],"parents":[2147483647,0,0,1,1,2,2,3,3,4,4,5,5,6,6,7,7,8,8,9,9,10,10,11,11,12,12,13,13,14,14,15,15,16,16,17,17,18,18,19,19,20,20,21,21,22,22,23,23,24,24,25,25,26,26,27,27,28,28,29,29,30,30,31,31,32,32,33,33,34,34,35,35,36,36,37,37,38,38,39,39,40,40,41,41,42,42,43,43,44,44,45,45,46,46,47,47,48,48,49,49,50,50,51,51,52,52,53,53,54,54,55,55,56,56,57,57,58,58,59,59,60,60,61,61,62,62],"right_children":[2,4,6,8,10,12,14,16,18,20,22,24,26,28,30,32,34,36,38,40,42,44,46,48,50,52,54,56,58,60,62,64,66,68,70,72,74,76,78,80,82,84,86,88,90,92,94,96,98,100,102,104,106,108,110,112,114,116,118,120,122,124,126,-1,-1,-1,-1,-1,-1,-1,-1,-1,-1,-1,-1,-1,-1,-1,-1,-1,-1,-1,-1,-1,-1,-1,-1,-1,-1,-1,-1,-1,-1,-1,-1,-1,-1,-1,-1,-1,-1,-1,-1,-1,-1,-1,-1,-1,-1,-1,-1,-1,-1,-1,-1,-1,-1,-1,-1,-1,-1,-1,-1,-1,-1,-1,-1],"split_conditions":[1.95E1,3E0,4.6666668E1,3.46E0,5E0,1.5E1,6.172134E-1,3E0,1E1,5E0,2.79E0,3.12E0,4.1E0,4.18E0,9.8E1,1E0,2.25E0,5E0,5E0,4.26E0,2.5E0,1.4433756E-1,5.5E0,1.4E1,8E0,3.06E0,3E0,4E0,3E0,4.3E1,9.8E1,3.1E1,1E0,2E0,5.5E0,4E0,2.11E2,1E0,1E0,3E0,1E1,2E0,2E0,7E0,2E0,3E0,8.333333E-1,5E0,2.29E0,6.859943E-1,1.7E1,3.4299716E-1,4E0,2E0,4.35E0,9E0,7.7E1,2E0,1.3E1,2.3E1,1.5E1,2.79E2,5.11E2,-1.7039184E-2,-1.305796E-3,6.7161996E-4,2.2096371E-2,-2.2638492E-2,-5.242042E-2,-1.1211605E-2,-3.1224204E-2,1.05612025E-5,4.5859206E-2,-5.6524216E-3,9.623175E-3,-1.4227578E-2,2.1714114E-3,-2.738443E-2,-1.6674884E-2,3.1948745E-2,1.14557E-2,5.39996E-2,2.4077494E-2,6.463688E-2,3.0760532E-2,3.9742433E-2,6.560891E-2,-2.4931144E-2,7.206917E-4,-7.226339E-2,-3.683944E-2,2.088783E-2,5.6589745E-2,8.709277E-3,-2.8975504E-2,-5.4254234E-2,-1.6939927E-2,-8.0556884E-2,-5.1421344E-2,-2.4259867E-2,-4.6448138E-2,1.4507083E-2,-1.9062942E-2,7.9331305E-3,-4.2077336E-2,2.7431216E-2,-2.036985E-3,-1.3748481E-2,5.2046575E-2,-1.9249065E-2,-5.0881073E-2,-2.8804379E-2,1.9987492E-2,-6.825744E-2,-3.512882E-2,-4.5427103E-2,2.5633939E-2,-4.6724033E-2,-8.0543384E-2,-5.9620004E-2,-2.8484935E-2,-7.395327E-2,-5.667977E-2,8.7129846E-2,-3.0634876E-2,-4.999635E-2,-1.778843E-2],"split_indices":[12,3,12,1,0,4,14,0,12,3,1,1,1,1,4,3,1,12,0,1,1,14,12,0,9,1,7,7,7,0,0,6,4,12,12,12,13,3,3,0,12,0,9,3,1,9,14,3,1,14,0,14,7,7,1,10,4,7,11,9,4,6,13,0,0,0,0,0,0,0,0,0,0,0,0,0,0,0,0,0,0,0,0,0,0,0,0,0,0,0,0,0,0,0,0,0,0,0,0,0,0,0,0,0,0,0,0,0,0,0,0,0,0,0,0,0,0,0,0,0,0,0,0,0,0,0,0],"split_type":[0,0,0,0,0,0,0,0,0,0,0,0,0,0,0,0,0,0,0,0,0,0,0,0,0,0,0,0,0,0,0,0,0,0,0,0,0,0,0,0,0,0,0,0,0,0,0,0,0,0,0,0,0,0,0,0,0,0,0,0,0,0,0,0,0,0,0,0,0,0,0,0,0,0,0,0,0,0,0,0,0,0,0,0,0,0,0,0,0,0,0,0,0,0,0,0,0,0,0,0,0,0,0,0,0,0,0,0,0,0,0,0,0,0,0,0,0,0,0,0,0,0,0,0,0,0,0],"sum_hessian":[9.0561055E4,7.666752E4,1.3893528E4,4.2697363E4,3.397016E4,9.771229E3,4.1223003E3,1.739357E4,2.5303795E4,5.588125E3,2.8382037E4,8.300811E3,1.4704174E3,2.8856506E3,1.2366495E3,1.109554E4,6.2980293E3,1.9910588E4,5.3932056E3,3.108072E3,2.480053E3,4.142579E3,2.4239457E4,9.456072E2,7.3552036E3,1.0332622E3,4.371552E2,1.5216211E3,1.3640294E3,1.1733927E3,6.3256866E1,7.352261E3,3.7432788E3,1.7469861E3,4.5510435E3,3.4457734E3,1.6464814E4,3.0563508E3,2.3368547E3,2.3904448E3,7.1762726E2,1.0311677E3,1.4488853E3,3.6169316E3,5.2564764E2,1.2966248E4,1.127321E4,2.9269998E2,6.5290717E2,5.6300303E3,1.7251735E3,1.3306206E2,9.0020013E2,1.8141411E2,2.5574109E2,1.0405907E3,4.8103043E2,9.794773E2,3.845522E2,5.1176538E2,6.616273E2,6.7369967E0,5.651987E1,6.118188E3,1.2340735E3,3.0871758E3,6.561031E2,5.543654E2,1.1926206E3,2.5649807E3,1.9860626E3,1.7058651E3,1.7399083E3,6.3604404E3,1.0104375E4,1.7387585E3,1.3175922E3,7.749586E2,1.5618961E3,9.786048E2,1.41184E3,4.945685E2,2.2305873E2,2.3760643E2,7.935613E2,4.6232272E2,9.865625E2,1.1930187E3,2.4239128E3,1.3632935E2,3.893183E2,1.1692903E4,1.2733446E3,1.0720356E4,5.528528E2,9.899719E1,1.937028E2,1.0981443E2,5.430927E2,5.0106396E3,6.193904E2,8.452534E2,8.7992E2,4.0744385E1,9.231767E1,5.276276E2,3.7257254E2,1.6054292E2,2.0871193E1,1.5104416E2,1.0469692E2,7.434048E2,2.9718588E2,1.792533E2,3.0177713E2,9.388523E2,4.062501E1,6.894828E1,3.1560388E2,3.2960995E2,1.8215544E2,3.3302954E2,3.2859775E2,5.3907175E0,1.346279E0,1.7817032E1,3.870284E1],"tree_param":{"num_deleted":"0","num_feature":"15","num_nodes":"127","size_leaf_vector":"1"}},{"base_weights":[-5.9431704E-4,-9.352591E-1,8.524936E-2,-9.877907E-2,-5.561243E-1,2.0981506E-1,-1.4879629E-1,-2.246002E-1,-7.481611E-1,3.2538533E-2,3.32764E-1,-5.2844893E-2,-3.823844E-1,-3.343676E-1,-2.6164113E-2,-6.737515E-1,-8.83735E-1,1.6843584E-1,-1.0262491E-1,4.965801E-1,2.7439982E-1,-3.5561493E-1,2.385364E-2,-5.709352E-1,-2.915414E-1,-4.1748545E-1,-2.4694021E-1,1.0387274E-2,-2.3417352E-1,-6.1037636E-1,-7.373325E-1,-9.1664237E-1,-7.061789E-1,4.0498763E-2,3.035994E-1,-2.7148494E-1,5.534259E-3,4.2467296E-1,7.5495315E-1,8.5552245E-2,3.4743655E-1,-2.013089E-1,-4.6626696E-1,-2.7974606E-1,6.685608E-2,-4.0342128E-1,-6.7394614E-1,-2.0257911E-1,-5.252903E-1,-3.151399E-2,-5.8314554E-2,-2.4122616E-2,-1.3825875E-2,-1.338763E-4,3.4848526E-2,7.981701E-3,-3.0994622E-2,-4.9404047E-2,4.061522E-3,-6.700071E-2,-5.4722432E-2,-6.91745E-2,-8.0383755E-2,-6.126617E-2,1.2264702E-1,1.0132208E-2,-7.673347E-3,2.841852E-2,7.038613E-3,-3.2034557E-2,-1.461537E-2,-2.2528779E-2,4.2928457E-3,2.7181026E-2,4.3448918E-2,5.4341152E-2,7.870127E-2,-7.4481014E-3,1.4130921E-2,2.1576775E-2,4.0094227E-2,-3.219863E-2,-9.004915E-3,-5.441583E-2,-3.148902E-2,-4.916632E-2,-1.7087663E-2,-1.2334693E-3,1.5567573E-2,-3.3165224E-2,5.0176162E-2,-7.344104E-2,-4.954679E-2,-2.3314575E-2,-5.5486744E-4,-3.737578E-2,-6.9243565E-2],"categories":[],"categories_nodes":[],"categories_segments":[],"categories_sizes":[],"default_left":[0,0,0,0,0,0,0,0,0,0,0,0,0,0,0,0,0,0,0,0,0,0,0,0,0,0,0,0,0,0,0,0,0,0,0,0,0,0,0,0,0,0,0,0,0,0,0,0,0,0,0,0,0,0,0,0,0,0,0,0,0,0,0,0,0,0,0,0,0,0,0,0,0,0,0,0,0,0,0,0,0,0,0,0,0,0,0,0,0,0,0,0,0,0,0,0,0],"id":13,"left_children":[1,3,5,-1,7,9,11,13,15,17,19,21,23,25,27,29,31,33,35,37,39,41,43,45,47,49,51,53,55,57,59,61,63,65,67,69,71,73,75,77,79,81,83,85,87,89,91,93,95,-1,-1,-1,-1,-1,-1,-1,-1,-1,-1,-1,-1,-1,-1,-1,-1,-1,-1,-1,-1,-1,-1,-1,-1,-1,-1,-1,-1,-1,-1,-1,-1,-1,-1,-1,-1,-1,-1,-1,-1,-1,-1,-1,-1,-1,-1,-1,-1],"loss_changes":[7.2398203E3,8.6113135E2,2.4093926E3,0E0,2.1320251E2,1.1755872E3,6.433905E2,2.67984E1,2.080896E1,4.057612E2,3.043645E2,4.7256534E2,1.43E2,5.654419E0,3.343252E0,5.086914E0,3.7269897E0,1.9046597E2,2.0227579E2,1.5509009E2,3.2388452E2,7.0134766E1,2.1200645E2,4.660547E1,1.1723364E2,2.682602E0,1.5202103E0,1.9223161E0,3.4019518E0,3.322998E0,3.0640564E0,2.0089111E0,1.739096E1,6.653246E1,5.959726E1,4.9437073E1,9.332181E1,6.564661E1,3.084961E1,1.06615204E2,2.0222827E2,3.0653877E1,3.695215E1,4.449388E1,1.4948819E2,1.2169495E1,2.1833069E1,7.107623E1,3.0330688E1,0E0,0E0,0E0,0E0,0E0,0E0,0E0,0E0,0E0,0E0,0E0,0E0,0E0,0E0,0E0,0E0,0E0,0E0,0E0,0E0,0E0,0E0,0E0,0E0,0E0,0E0,0E0,0E0,0E0,0E0,0E0,0E0,0E0,0E0,0E0,0E0,0E0,0E0,0E0,0E0,0E0,0E0,0E0,0E0,0E0,0E0,0E0,0E0],"parents":[2147483647,0,0,1,1,2,2,4,4,5,5,6,6,7,7,8,8,9,9,10,10,11,11,12,12,13,13,14,14,15,15,16,16,17,17,18,18,19,19,20,20,21,21,22,22,23,23,24,24,25,25,26,26,27,27,28,28,29,29,30,30,31,31,32,32,33,33,34,34,35,35,36,36,37,37,38,38,39,39,40,40,41,41,42,42,43,43,44,44,45,45,46,46,47,47,48,48],"right_children":[2,4,6,-1,8,10,12,14,16,18,20,22,24,26,28,30,32,34,36,38,40,42,44,46,48,50,52,54,56,58,60,62,64,66,68,70,72,74,76,78,80,82,84,86,88,90,92,94,96,-1,-1,-1,-1,-1,-1,-1,-1,-1,-1,-1,-1,-1,-1,-1,-1,-1,-1,-1,-1,-1,-1,-1,-1,-1,-1,-1,-1,-1,-1,-1,-1,-1,-1,-1,-1,-1,-1,-1,-1,-1,-1,-1,-1,-1,-1,-1,-1],"split_conditions":[4E0,3E0,1E1,-9.877907E-2,2E0,8E0,2.8666666E1,4.69E2,5E0,3E0,3E0,7E0,9E0,2.27E2,4E0,3E0,4.7E0,6E0,6E0,2E0,3.2E0,6E0,3.06E0,2E1,6.65E1,2.17E2,4.52E0,4E0,6.32E2,5E0,2.79E0,1.1E1,7.1E1,2E0,1.06E2,3.25E0,2.33E0,4E2,5E0,4E0,1.2E1,5E0,3.41E0,2.18E0,1.1E1,3E0,6E0,2E0,1.2110714E2,-3.151399E-2,-5.8314554E-2,-2.4122616E-2,-1.3825875E-2,-1.338763E-4,3.4848526E-2,7.981701E-3,-3.0994622E-2,-4.9404047E-2,4.061522E-3,-6.700071E-2,-5.4722432E-2,-6.91745E-2,-8.0383755E-2,-6.126617E-2,1.2264702E-1,1.0132208E-2,-7.673347E-3,2.841852E-2,7.038613E-3,-3.2034557E-2,-1.461537E-2,-2.2528779E-2,4.2928457E-3,2.7181026E-2,4.3448918E-2,5.4341152E-2,7.870127E-2,-7.4481014E-3,1.4130921E-2,2.1576775E-2,4.0094227E-2,-3.219863E-2,-9.004915E-3,-5.441583E-2,-3.148902E-2,-4.916632E-2,-1.7087663E-2,-1.2334693E-3,1.5567573E-2,-3.3165224E-2,5.0176162E-2,-7.344104E-2,-4.954679E-2,-2.3314575E-2,-5.5486744E-4,-3.737578E-2,-6.9243565E-2],"split_indices":[8,8,12,0,0,8,12,13,0,0,0,8,8,13,6,0,1,8,8,3,1,0,1,0,12,13,1,3,13,9,1,0,0,0,6,1,1,13,3,3,8,8,1,1,8,2,8,2,12,0,0,0,0,0,0,0,0,0,0,0,0,0,0,0,0,0,0,0,0,0,0,0,0,0,0,0,0,0,0,0,0,0,0,0,0,0,0,0,0,0,0,0,0,0,0,0,0],"split_type":[0,0,0,0,0,0,0,0,0,0,0,0,0,0,0,0,0,0,0,0,0,0,0,0,0,0,0,0,0,0,0,0,0,0,0,0,0,0,0,0,0,0,0,0,0,0,0,0,0,0,0,0,0,0,0,0,0,0,0,0,0,0,0,0,0,0,0,0,0,0,0,0,0,0,0,0,0,0,0,0,0,0,0,0,0,0,0,0,0,0,0,0,0,0,0,0,0],"sum_hessian":[9.023063E4,7.589237E3,8.26414E4,4.238769E3,3.3504678E3,5.3935508E4,2.8705893E4,1.2297128E3,2.120755E3,2.2088297E4,3.1847209E4,2.034852E4,8.357372E3,7.9130664E2,4.3840616E2,1.3730999E3,7.4765515E2,1.1014125E4,1.1074173E4,8.363924E3,2.3483285E4,4.1121265E3,1.6236394E4,2.715624E3,5.6417485E3,4.0371585E2,3.875908E2,3.7369125E2,6.471491E1,6.9297205E2,6.8012775E2,6.272425E2,1.2041264E2,5.6589897E3,5.3551353E3,4.323202E3,6.75097E3,6.5450356E3,1.8188881E3,6.549843E3,1.6933441E4,1.7184874E3,2.393639E3,2.0137435E3,1.422265E4,1.0359321E3,1.679692E3,4.087831E3,1.5539174E3,3.7742862E2,2.6287212E1,2.2142587E2,1.6616493E2,3.6435297E2,9.338278E0,2.0467087E1,4.424783E1,6.855984E2,7.3736567E0,2.3109457E2,4.4903317E2,4.014336E2,2.2580891E2,1.1792931E2,2.483329E0,3.4685098E3,2.1904802E3,4.3200073E3,1.0351279E3,1.7615406E3,2.5616616E3,9.6837036E2,5.7826E3,3.8143486E3,2.730687E3,1.3697566E3,4.4913147E2,2.2117244E3,4.338118E3,1.1249035E4,5.684407E3,5.2496173E2,1.1935258E3,6.047082E2,1.7889307E3,3.3083994E2,1.6829037E3,8.651337E3,5.571313E3,1.0254419E3,1.0490243E1,3.0422928E2,1.3754626E3,2.8107944E3,1.2770366E3,1.3293287E3,2.2458864E2],"tree_param":{"num_deleted":"0","num_feature":"15","num_nodes":"97","size_leaf_vector":"1"}},{"base_weights":[-2.0522664E-3,-9.0047276E-1,7.717767E-2,-9.6755475E-2,-5.229049E-1,1.7741026E-1,-1.7536741E-1,-2.0774859E-1,-7.093011E-1,4.854876E-2,3.281876E-1,-1.0114672E-1,-4.2670712E-1,-2.964986E-1,1.7531319E-2,-6.260723E-1,-8.0520546E-1,2.6174623E-1,-2.2190247E-2,5.992946E-1,2.9447177E-1,-2.6880044E-1,2.0935332E-2,-6.209715E-1,-3.433165E-1,-4.4255382E-1,-2.422657E-1,-8.695231E-3,3.1564856E-1,-7.078749E-1,-5.844334E-1,-8.491388E-1,-6.763392E-1,1.1520471E-1,3.7599364E-1,-2.1561113E-1,6.276191E-2,4.4571352E-1,7.8307754E-1,2.409827E-1,4.6615103E-1,-4.7289583E-1,-1.9887666E-1,-6.8808846E-2,1.678902E-1,-4.480461E-1,-7.244724E-1,-2.493525E-1,-5.0751215E-1,-2.6442405E-2,-3.9373565E-2,-1.8250791E-2,-4.142773E-2,2.982881E-3,-8.420607E-3,9.096042E-3,8.0509335E-2,-4.330771E-2,-6.506357E-2,-4.157154E-2,-5.612229E-2,-6.1714802E-2,-7.4157E-2,-5.5836424E-2,3.1602427E-2,-1.8012886E-3,1.8688353E-2,2.841453E-2,5.8964428E-2,-1.1446604E-2,-2.8275004E-2,-1.31450845E-2,7.959432E-3,3.247621E-2,6.292622E-2,5.058582E-2,7.139195E-2,5.9789227E-4,2.2073563E-2,1.32734375E-2,4.257604E-2,-5.734088E-2,-3.2048557E-2,-3.6752447E-2,-1.2013899E-2,1.0136593E-2,-1.2239338E-2,5.8478997E-3,2.8876904E-2,-4.2135842E-2,-2.3757914E-2,-7.7429414E-2,-5.3752966E-2,-5.090134E-2,-1.573563E-2,-3.6225226E-2,-7.114415E-2],"categories":[],"categories_nodes":[],"categories_segments":[],"categories_sizes":[],"default_left":[0,0,0,0,0,0,0,0,0,0,0,0,0,0,0,0,0,0,0,0,0,0,0,0,0,0,0,0,0,0,0,0,0,0,0,0,0,0,0,0,0,0,0,0,0,0,0,0,0,0,0,0,0,0,0,0,0,0,0,0,0,0,0,0,0,0,0,0,0,0,0,0,0,0,0,0,0,0,0,0,0,0,0,0,0,0,0,0,0,0,0,0,0,0,0,0,0],"id":14,"left_children":[1,3,5,-1,7,9,11,13,15,17,19,21,23,25,27,29,31,33,35,37,39,41,43,45,47,49,51,53,55,57,59,61,63,65,67,69,71,73,75,77,79,81,83,85,87,89,91,93,95,-1,-1,-1,-1,-1,-1,-1,-1,-1,-1,-1,-1,-1,-1,-1,-1,-1,-1,-1,-1,-1,-1,-1,-1,-1,-1,-1,-1,-1,-1,-1,-1,-1,-1,-1,-1,-1,-1,-1,-1,-1,-1,-1,-1,-1,-1,-1,-1],"loss_changes":[6.3799824E3,8.467295E2,2.0849763E3,0E0,1.9198712E2,1.1456223E3,4.3652295E2,2.4336155E1,1.5897217E1,4.7950055E2,2.4818652E2,3.698252E2,8.621246E1,6.808342E0,2.699146E0,3.3486633E0,4.810913E0,1.3257147E2,3.9229544E2,8.4451904E1,2.218208E2,1.0855774E2,1.3791174E2,2.8331116E1,5.7497406E1,1.1445694E0,2.3697433E0,1.4156743E0,3.7791605E0,6.0176697E0,5.232193E0,3.5508728E0,5.9901657E0,5.6612595E1,3.3181458E1,7.2781494E1,1.3837927E2,2.1894226E1,2.1955078E1,1.5034216E2,1.137384E2,3.394876E1,7.19048E1,1.0687962E2,7.2534515E1,6.997795E0,1.2142151E1,4.8312653E1,2.7965454E1,0E0,0E0,0E0,0E0,0E0,0E0,0E0,0E0,0E0,0E0,0E0,0E0,0E0,0E0,0E0,0E0,0E0,0E0,0E0,0E0,0E0,0E0,0E0,0E0,0E0,0E0,0E0,0E0,0E0,0E0,0E0,0E0,0E0,0E0,0E0,0E0,0E0,0E0,0E0,0E0,0E0,0E0,0E0,0E0,0E0,0E0,0E0,0E0],"parents":[2147483647,0,0,1,1,2,2,4,4,5,5,6,6,7,7,8,8,9,9,10,10,11,11,12,12,13,13,14,14,15,15,16,16,17,17,18,18,19,19,20,20,21,21,22,22,23,23,24,24,25,25,26,26,27,27,28,28,29,29,30,30,31,31,32,32,33,33,34,34,35,35,36,36,37,37,38,38,39,39,40,40,41,41,42,42,43,43,44,44,45,45,46,46,47,47,48,48],"right_children":[2,4,6,-1,8,10,12,14,16,18,20,22,24,26,28,30,32,34,36,38,40,42,44,46,48,50,52,54,56,58,60,62,64,66,68,70,72,74,76,78,80,82,84,86,88,90,92,94,96,-1,-1,-1,-1,-1,-1,-1,-1,-1,-1,-1,-1,-1,-1,-1,-1,-1,-1,-1,-1,-1,-1,-1,-1,-1,-1,-1,-1,-1,-1,-1,-1,-1,-1,-1,-1,-1,-1,-1,-1,-1,-1,-1,-1,-1,-1,-1,-1],"split_conditions":[4E0,3E0,1.05E1,-9.6755475E-2,2E0,9E0,3.9E1,5.49E2,4E0,2E0,2E0,9E0,9E0,1.6E2,1.842E3,2.79E0,4.5E0,6E0,6E0,4.06E2,2E0,6E0,1E0,2.7E1,7E1,4.5E0,5.23E2,1E0,2E0,2E0,6E0,6.5E0,9.1E1,3.07E2,3E0,5E0,2.33E0,2E0,2E0,2E0,2.5E0,3.41E0,3.12E0,8E0,1.3E1,8E0,6E0,3.22E0,1.2567143E2,-2.6442405E-2,-3.9373565E-2,-1.8250791E-2,-4.142773E-2,2.982881E-3,-8.420607E-3,9.096042E-3,8.0509335E-2,-4.330771E-2,-6.506357E-2,-4.157154E-2,-5.612229E-2,-6.1714802E-2,-7.4157E-2,-5.5836424E-2,3.1602427E-2,-1.8012886E-3,1.8688353E-2,2.841453E-2,5.8964428E-2,-1.1446604E-2,-2.8275004E-2,-1.31450845E-2,7.959432E-3,3.247621E-2,6.292622E-2,5.058582E-2,7.139195E-2,5.9789227E-4,2.2073563E-2,1.32734375E-2,4.257604E-2,-5.734088E-2,-3.2048557E-2,-3.6752447E-2,-1.2013899E-2,1.0136593E-2,-1.2239338E-2,5.8478997E-3,2.8876904E-2,-4.2135842E-2,-2.3757914E-2,-7.7429414E-2,-5.3752966E-2,-5.090134E-2,-1.573563E-2,-3.6225226E-2,-7.114415E-2],"split_indices":[8,8,12,0,0,8,12,13,0,0,0,8,8,13,13,1,1,8,8,13,9,8,2,0,12,12,13,3,3,12,12,12,0,13,3,0,1,3,12,12,1,1,1,0,8,8,8,1,12,0,0,0,0,0,0,0,0,0,0,0,0,0,0,0,0,0,0,0,0,0,0,0,0,0,0,0,0,0,0,0,0,0,0,0,0,0,0,0,0,0,0,0,0,0,0,0,0],"split_type":[0,0,0,0,0,0,0,0,0,0,0,0,0,0,0,0,0,0,0,0,0,0,0,0,0,0,0,0,0,0,0,0,0,0,0,0,0,0,0,0,0,0,0,0,0,0,0,0,0,0,0,0,0,0,0,0,0,0,0,0,0,0,0,0,0,0,0,0,0,0,0,0,0,0,0,0,0,0,0,0,0,0,0,0,0,0,0,0,0,0,0,0,0,0,0,0,0],"sum_hessian":[8.962743E4,7.2626724E3,8.236476E4,3.9929583E3,3.2697139E3,5.896317E4,2.340159E4,1.2159376E3,2.0537764E3,3.1792828E4,2.7170342E4,1.8067617E4,5.3339717E3,8.7206696E2,3.438707E2,1.1035815E3,9.501947E2,7.920089E3,2.387274E4,3.0034038E3,2.4166938E4,7.612402E3,1.0455216E4,1.6000634E3,3.7339082E3,2.3419463E2,6.378723E2,3.1695752E2,2.6913172E1,3.6685968E2,7.367219E2,7.044446E2,2.4575014E2,3.4705425E3,4.4495464E3,7.2848647E3,1.6587875E4,1.6380045E3,1.3653993E3,1.842788E4,5.7390576E3,1.9410499E3,5.671352E3,6.491463E3,3.9637532E3,6.01099E2,9.989644E2,2.3764558E3,1.3574524E3,7.4238594E1,1.5995602E2,6.0849854E2,2.9373802E1,2.1513026E2,1.0182726E2,2.1725742E1,5.1874294E0,1.4459013E2,2.2226953E2,4.7779477E2,2.5892712E2,3.579543E2,3.4649026E2,2.4123155E2,4.5185843E0,1.6047411E3,1.8658015E3,4.2089233E3,2.4062338E2,4.7744414E3,2.5104233E3,2.3091228E3,1.4278752E4,1.4688573E3,1.691472E2,5.767903E2,7.886091E2,2.3984524E3,1.6029428E4,1.0355223E3,4.703535E3,4.4178418E2,1.4992657E3,8.9188983E2,4.779462E3,1.953626E3,4.537837E3,2.659437E3,1.3043162E3,3.9366214E2,2.0743683E2,1.7431866E2,8.2464575E2,2.8335266E2,2.093103E3,1.1892599E3,1.6819243E2],"tree_param":{"num_deleted":"0","num_feature":"15","num_nodes":"97","size_leaf_vector":"1"}},{"base_weights":[-9.5636916E-4,-8.663081E-1,7.265949E-2,-9.4865546E-2,-4.91702E-1,1.3690569E-1,-2.6190194E-1,-1.8547659E-1,-6.7719966E-1,-7.334723E-2,2.1338218E-1,-2.0018181E-1,-4.948488E-1,-3.1272015E-1,-5.3628556E-2,-6.0872537E-1,-8.070856E-1,9.4129615E-2,-2.1243146E-1,3.861576E-1,1.6122659E-1,-2.975637E-1,-3.403597E-2,-6.8586683E-1,-4.2369014E-1,-3.905354E-1,-2.642787E-1,-8.741054E-3,-2.7038243E-1,-6.939024E-1,-5.6787544E-1,-8.4319323E-1,-6.139914E-1,-5.3096145E-2,1.780354E-1,-3.9691025E-1,-1.455355E-1,3.4297183E-1,7.2628295E-1,7.5015895E-2,2.9328284E-1,-7.054033E-1,-2.730467E-1,-1.12579994E-1,2.253607E-1,-9.159173E-1,-6.3856006E-1,-3.8231692E-1,-7.789797E-1,-2.0306475E-2,-3.6068346E-2,-2.582445E-2,-1.731412E-2,-2.4288984E-3,2.3787605E-2,1.6765159E-2,-2.5425294E-2,-4.1859634E-2,-6.354752E-2,-4.1475404E-2,-5.1702857E-2,-5.968283E-2,-7.2758965E-2,-5.3683177E-2,1.14989534E-1,3.0829022E-3,-1.5644742E-2,2.1430817E-2,3.7581294E-3,-2.4219155E-2,-3.8461078E-2,-2.2650456E-2,-6.666557E-3,2.1184023E-2,3.5305683E-2,6.3383855E-2,3.896923E-2,-6.128065E-3,1.0495549E-2,9.777793E-3,2.7630938E-2,4.102259E-2,-5.7429295E-2,-4.5534868E-2,-1.9166851E-2,-1.5884109E-2,3.109059E-3,-1.8684916E-2,2.3858167E-2,-8.610194E-2,-6.441499E-2,-4.523945E-2,-6.444443E-2,-3.9822187E-2,-1.6837763E-2,-5.1971983E-2,-7.145759E-2],"categories":[],"categories_nodes":[],"categories_segments":[],"categories_sizes":[],"default_left":[0,0,0,0,0,0,0,0,0,0,0,0,0,0,0,0,0,0,0,0,0,0,0,0,0,0,0,0,0,0,0,0,0,0,0,0,0,0,0,0,0,0,0,0,0,0,0,0,0,0,0,0,0,0,0,0,0,0,0,0,0,0,0,0,0,0,0,0,0,0,0,0,0,0,0,0,0,0,0,0,0,0,0,0,0,0,0,0,0,0,0,0,0,0,0,0,0],"id":15,"left_children":[1,3,5,-1,7,9,11,13,15,17,19,21,23,25,27,29,31,33,35,37,39,41,43,45,47,49,51,53,55,57,59,61,63,65,67,69,71,73,75,77,79,81,83,85,87,89,91,93,95,-1,-1,-1,-1,-1,-1,-1,-1,-1,-1,-1,-1,-1,-1,-1,-1,-1,-1,-1,-1,-1,-1,-1,-1,-1,-1,-1,-1,-1,-1,-1,-1,-1,-1,-1,-1,-1,-1,-1,-1,-1,-1,-1,-1,-1,-1,-1,-1],"loss_changes":[5.6584927E3,8.329419E2,1.7595878E3,0E0,1.8206323E2,1.1042609E3,1.895094E2,2.03051E1,1.7269836E1,4.2669925E2,4.537229E2,1.686984E2,3.7246887E1,2.219574E0,5.7973847E0,4.169983E0,4.267334E0,1.0267901E2,1.2344208E2,1.712539E2,4.403698E2,6.553998E1,7.855363E1,7.554779E0,2.9316986E1,1.8178215E0,1.0024452E0,3.283853E0,2.3940215E0,6.795059E0,3.1225586E0,3.0283203E0,1.40477295E1,3.9404358E1,6.233113E1,2.0879639E1,6.2848267E1,7.955017E1,2.0369507E1,1.9936737E2,1.361344E2,6.0180664E0,6.1327637E1,3.8535484E1,3.0037052E1,1.3576584E0,7.1542816E0,3.573874E1,2.5102081E0,0E0,0E0,0E0,0E0,0E0,0E0,0E0,0E0,0E0,0E0,0E0,0E0,0E0,0E0,0E0,0E0,0E0,0E0,0E0,0E0,0E0,0E0,0E0,0E0,0E0,0E0,0E0,0E0,0E0,0E0,0E0,0E0,0E0,0E0,0E0,0E0,0E0,0E0,0E0,0E0,0E0,0E0,0E0,0E0,0E0,0E0,0E0,0E0],"parents":[2147483647,0,0,1,1,2,2,4,4,5,5,6,6,7,7,8,8,9,9,10,10,11,11,12,12,13,13,14,14,15,15,16,16,17,17,18,18,19,19,20,20,21,21,22,22,23,23,24,24,25,25,26,26,27,27,28,28,29,29,30,30,31,31,32,32,33,33,34,34,35,35,36,36,37,37,38,38,39,39,40,40,41,41,42,42,43,43,44,44,45,45,46,46,47,47,48,48],"right_children":[2,4,6,-1,8,10,12,14,16,18,20,22,24,26,28,30,32,34,36,38,40,42,44,46,48,50,52,54,56,58,60,62,64,66,68,70,72,74,76,78,80,82,84,86,88,90,92,94,96,-1,-1,-1,-1,-1,-1,-1,-1,-1,-1,-1,-1,-1,-1,-1,-1,-1,-1,-1,-1,-1,-1,-1,-1,-1,-1,-1,-1,-1,-1,-1,-1,-1,-1,-1,-1,-1,-1,-1,-1,-1,-1,-1,-1,-1,-1,-1,-1],"split_conditions":[4E0,3E0,2E1,-9.4865546E-2,2E0,7E0,5.6666668E1,3.46E2,5E0,3E0,3E0,1.1E1,9E0,1.6E2,2E0,2.79E0,4.7E0,5E0,5E0,3E0,1.1E1,5E0,6.91E2,6E0,1.2110714E2,4.5E0,4E0,1.645E3,3.83E2,2E0,5.5E0,5.5E0,7.1E1,2E0,3E0,5E0,3.18E0,3.78E2,3.7E1,3.2E0,3.24E0,1.34E2,3.09E0,9E0,3.12E0,5E0,9.1083336E1,5.88E2,1.3116441E2,-2.0306475E-2,-3.6068346E-2,-2.582445E-2,-1.731412E-2,-2.4288984E-3,2.3787605E-2,1.6765159E-2,-2.5425294E-2,-4.1859634E-2,-6.354752E-2,-4.1475404E-2,-5.1702857E-2,-5.968283E-2,-7.2758965E-2,-5.3683177E-2,1.14989534E-1,3.0829022E-3,-1.5644742E-2,2.1430817E-2,3.7581294E-3,-2.4219155E-2,-3.8461078E-2,-2.2650456E-2,-6.666557E-3,2.1184023E-2,3.5305683E-2,6.3383855E-2,3.896923E-2,-6.128065E-3,1.0495549E-2,9.777793E-3,2.7630938E-2,4.102259E-2,-5.7429295E-2,-4.5534868E-2,-1.9166851E-2,-1.5884109E-2,3.109059E-3,-1.8684916E-2,2.3858167E-2,-8.610194E-2,-6.441499E-2,-4.523945E-2,-6.444443E-2,-3.9822187E-2,-1.6837763E-2,-5.1971983E-2,-7.145759E-2],"split_indices":[8,8,12,0,0,8,12,13,0,0,0,8,8,13,6,1,1,8,8,3,8,8,13,8,12,12,12,13,13,12,12,12,0,0,6,0,1,13,6,1,1,13,1,9,1,8,12,13,12,0,0,0,0,0,0,0,0,0,0,0,0,0,0,0,0,0,0,0,0,0,0,0,0,0,0,0,0,0,0,0,0,0,0,0,0,0,0,0,0,0,0,0,0,0,0,0,0],"split_type":[0,0,0,0,0,0,0,0,0,0,0,0,0,0,0,0,0,0,0,0,0,0,0,0,0,0,0,0,0,0,0,0,0,0,0,0,0,0,0,0,0,0,0,0,0,0,0,0,0,0,0,0,0,0,0,0,0,0,0,0,0,0,0,0,0,0,0,0,0,0,0,0,0,0,0,0,0,0,0,0,0,0,0,0,0,0,0,0,0,0,0,0,0,0,0,0,0],"sum_hessian":[8.882331E4,6.9629795E3,8.1860336E4,3.7566604E3,3.2063193E3,6.8673484E4,1.3186851E4,1.2103068E3,1.9960126E3,1.8316611E4,5.035687E4,1.0426238E4,2.7606116E3,6.152098E2,5.950969E2,1.3107092E3,6.8530334E2,8.310242E3,1.0006369E4,1.1674953E4,3.8681918E4,6.5729126E3,3.853326E3,7.469264E2,2.0136852E3,2.3333064E2,3.8187918E2,4.9386325E2,1.0123367E2,4.1966693E2,8.910423E2,5.7450665E2,1.1079669E2,3.0169321E3,5.29331E3,2.6615867E3,7.344782E3,1.0361376E4,1.3135773E3,2.3404352E4,1.5277567E4,3.7114557E2,6.201767E3,2.9581719E3,8.951539E2,1.2426601E2,6.2266034E2,1.8055109E3,2.0817436E2,7.302893E1,1.603017E2,1.6919487E2,2.126843E2,4.6212234E2,3.1740881E1,8.797747E0,9.243593E1,1.5778654E2,2.6188037E2,5.5117316E2,3.3986914E2,2.3798222E2,3.365244E2,1.0845348E2,2.3432097E0,1.8364534E3,1.1804789E3,3.1397505E3,2.1535596E3,1.2558372E3,1.4057495E3,2.2855527E3,5.05923E3,5.7749385E3,4.5864375E3,1.02762E3,2.8595724E2,6.327386E3,1.7076965E4,3.567753E3,1.1709814E4,3.352066E0,3.677935E2,6.2797876E2,5.5737886E3,1.8867755E3,1.0713965E3,1.2235305E2,7.728008E2,4.7196743E1,7.706927E1,4.361946E2,1.8646574E2,1.0787892E3,7.2672174E2,1.0077492E2,1.07399445E2],"tree_param":{"num_deleted":"0","num_feature":"15","num_nodes":"97","size_leaf_vector":"1"}},{"base_weights":[-1.1519276E-3,3.168541E-2,-3.572805E-1,-6.308383E-2,1.05237335E-1,-6.1384654E-1,-3.2006377E-1,-1.5510093E-1,1.1782919E-2,2.909973E-1,4.3618247E-2,-4.9464247E-1,-7.213748E-1,-2.0852394E-1,-3.928477E-1,-1.16433464E-1,-3.094713E-1,5.761374E-2,-1.4927538E-1,2.0775892E-1,4.9196813E-1,-9.145845E-2,1.02348715E-1,-6.087645E-1,-1.7178887E-1,-9.55382E-1,-6.531507E-1,-1.4219432E-1,-4.4298908E-1,-3.110165E-1,-4.8896834E-1,-1.6210122E-1,-5.301132E-3,-4.7523558E-1,-2.132852E-1,2.2317211E-1,1.0020044E-3,-1.09837495E-1,-2.785292E-1,